{"layer_sizes": [784, 30, 10], "weights": [[[0.0884084852443697, -0.0060657729586339896, 0.033229727087255266, 0.02501185468087223, 0.06735150007505429, -0.06769627086302854, -0.0269444341134373, -0.009728734181357232, -0.03187917431248564, 0.023844313062014368, -0.0016876754642979985, -0.04309560214855103, -0.0026837871396604594, 0.04619059425350628, 0.029458540583075114, -0.03319900816428262, -0.007902726568706034, -0.03249407907594483, 0.03312794694918265, 0.04540490468520754, -0.009563393875041128, 0.007642722283543892, -0.06792119878199056, 0.048859277546905056, 0.056535273556445116, 0.05318270011144365, -0.04751552863725354, -0.06859983945010487, 0.005475361888607515, 0.04074397564699445, -0.022867275679343824, -0.00046463119605092866, 0.0826337175976643, -0.01647212289441388, 0.004906468287551431, -0.004279951649910735, -0.051948010019319674, -0.05260449291935855, 0.009965144433953412, -0.015910274434482494, -0.03726327572616996, 0.08529683602004397, -0.03390711055715473, -0.008135476013128994, -0.05824640746574173, -0.016655500687176666, -0.009328083784659423, -0.03995998487949297, -0.014024363849703242, 0.015570836007865758, 0.05813469396523497, 0.036470490827425164, 0.0451092102281535, -0.043050867796616224, -0.010531531535121959, 0.016255879576058032, 0.05461418502714399, -0.02844100983524069, 0.050541334729331706, -0.006258024389997757, -0.04989159698113376, 0.015793190241284057, 0.06963581304406223, -0.08679265381106248, -0.003932515578747939, -0.0054491433660839, -0.09557871992352825, -0.20652819665173938, -0.4929062053975095, -0.6634277055491333, -0.5710544020617433, -0.27047155599008316, -0.2356564245447586, -0.2031473896243973, 0.010870823328293847, 0.15845298060235816, -0.04042640321691116, -0.04085996356189886, -0.03385070819661131, -0.0004936644972597467, -0.009805855197339251, 0.04566076045100021, -0.003773855127817969, 0.015248928129877203, -0.0065308287371249355, -0.02476081149796836, -0.0376861625464773, -0.0011383268135710329, 0.007622280954897462, -0.042850308484928545, -0.003095897136350541, -0.10618567293918274, -0.17137198343098298, -0.3033697934138778, -0.47034610652285086, -0.8072657559532029, -0.946942889294623, -0.9780046613252918, -1.065853967559823, -0.762442186089872, -0.5271783640502256, -0.46112164734512523, -0.8031618334575064, -0.6102175059754941, -0.5374012003218667, -0.28949328244692707, -0.30352993589811766, -0.4795966158131838, -0.46917140560790516, -0.02242213341292372, -0.01709488104824926, 0.011955538634570814, -0.0004519493713520251, -0.033581195365608545, -0.03473737448033902, 0.051335237597749175, -0.004743351313486483, -0.09951604120932717, -0.16210468166581946, -0.15835041421168908, -0.23673995808455503, -0.0941678792716432, -0.032643057598035694, 0.11521454709663846, -0.08254141464007712, -0.6673329898280133, -0.7153134016605304, -0.7079953968142197, -0.7446044911505306, -0.8652867276408206, -0.2788476306370433, -0.33461611930064344, -0.516085526107765, -0.18060885284981001, -0.4009363959160665, -0.1931094619227754, 0.06843081402235218, 0.06268906410812661, -0.08190535750745706, -0.04533439035027545, 0.027160574523588832, 0.07301841546081567, 0.0466493854257492, 0.007971653477479518, -0.009026601144439742, -0.1486923956009581, -0.4763244318554467, -0.13823252959963522, 0.5081039641954139, 0.746429381060049, 0.4121452685414601, -0.4828739708378752, -0.46530210095441427, -0.16061160322644663, 0.0403757384839044, -0.5760078725446118, -0.09228109976332435, 0.0018288498722569488, -0.33208770485830386, -0.08453777200600376, 0.06219161175838478, -0.5044286082138929, -0.8196483054728221, 0.09496546747621762, 0.5413849703021626, 0.15698585572084475, 0.10920757004263788, 0.018183621150329794, 0.03280764418399022, 0.02326202900982417, 0.10097929637529553, 0.10344811065916838, 0.041050900949868116, 0.11153353062154608, -0.16192192243780973, 0.271749620914052, 0.7759828353562521, 0.7140849295227999, -0.038010877652391986, -0.3224833069373457, -0.0591846528000008, 0.0847281059157774, 0.0858789470251592, -0.9419964654025365, -0.5709629314666821, -0.3522441211043656, -0.45547544078164093, -0.0005357593159412169, 0.5510239216734015, -0.12232346663327269, 0.23783363456993192, 0.43269219610048176, 0.5651069836217549, 0.37722894625453607, 0.1587676063700844, 0.07555622825286142, -0.009464237761513722, 0.03986475253308559, 0.026689629094506662, -0.0026355618367408405, 0.3531865423574548, 0.8473803128644557, 0.7563884370401295, 0.5259844918580329, 0.6129175484516693, -0.3088417318688212, -0.3614482243386794, -0.3609048503036807, 0.08706320133903708, -0.30930412471815705, -0.1196583403130554, -1.127760733016856, -0.5122527293748679, -0.4464125582519162, 0.01131335755684999, -0.6496419843531084, -0.2899961144981651, -0.40448937273049396, -0.8267882529344608, 0.014601210280730182, 0.674058861665216, 0.9465345311697437, 0.19598856392054242, 0.06991711227603548, 0.027422877285470236, -0.07747800505563315, -0.05312350925625399, -0.01088566552871786, 0.33482553038953783, 0.8252519563538987, 0.23147543527261633, -0.6859997848180795, -0.25769623335450154, -0.5089430455458334, -0.1882906283844972, -0.19631066358670174, -0.13370720429475452, -0.03543161795529378, -0.5670696097765954, -0.5668705254463777, -0.17431415675447745, 0.19512932932717603, 0.9545351777716149, 0.5668342310386147, -0.20813798372595121, -0.0018760896001687056, -0.24292741363142692, 0.11437982534883866, 0.6690081887078942, 0.5933903782434066, 0.03639170128424336, -0.02658557482155362, 0.003356848591590392, -0.03845662714715632, 0.03189177189617805, 0.12044010704775483, 0.4733998528089004, 0.29003609746581577, 0.029312193010183077, -0.29069494353796943, -0.6038321819733098, -0.2485674850454041, 0.6888623468152716, -0.1321903344354859, -0.31281938340060544, 0.7203560523888952, 0.48307383047346797, -0.3609931702875879, -0.1621948511490442, -0.2566251771542568, 0.31412556500193095, -0.24576450449983508, -0.2496892370362479, -0.10350237682567913, -0.25739650418989496, -0.4526017261777851, 0.06939812770630832, 0.3573610114925459, 0.014869543590320024, -0.04304220871413645, 0.046871510725145546, -0.030525360642370474, -0.11634163982195876, 0.09270027813166913, 0.33213173507673577, -0.17039722978455965, -0.5870483565142094, 0.017957520460668418, -0.25267039501946004, 0.4310425183854642, 1.4324478386208641, 0.43453201658678237, 1.0451199780345939, -0.03578285901543664, -1.32527954538625, -1.1700152386948581, -1.4285945009556653, -0.9160986714474694, -0.1385335129693858, -0.40993225602872957, -0.18351745008136416, -0.5238053233551421, 0.07831863215537857, 0.10519432061473202, 0.305679094892744, 0.7832991476695318, 0.29769368706403687, -0.00660119082920027, -0.021939547052151995, -0.057914411463800906, -0.025780774080520853, -0.1432555624407658, 0.01790144919577765, -0.4294986910831884, -0.4141474884350722, -0.19229591777848815, 0.3780319508830235, -0.14794778979855788, 0.03471499967590855, -0.09441052540964846, -0.026124278517814986, -0.23897497005132853, 0.005880172521256268, -0.5182151157376976, -0.8542705741128903, -0.028014465769080107, -0.47535287198989234, -0.06298308524177833, 0.20096443265699052, -0.26347632415668065, 0.41403063040745014, 0.510609445777862, 0.06805245821422815, 0.32574184665021605, 0.3192018384578758, 0.05630551522922397, 0.07297422459885636, -0.017281011809097614, -0.10905443894180801, -0.1904220521149646, 0.1098599215139755, -0.5376438638677055, -0.3441044952610185, 0.37164374971492775, 0.661073204992817, 0.037231739988369296, -0.0014120644119342256, -0.6413591217446188, 0.17848645449752826, 0.9102007829599622, 0.46627048883143013, 0.16168499954321958, -0.9869704348165198, -0.4292813453077593, -1.3869969157745092, -1.6817682869555841, -0.5711339824967226, -0.5565582788220828, -0.1710223467666029, -0.21502501966606435, -0.4307216917942665, -0.01958908085753011, 0.18447617463112861, -0.03864841799031381, 0.03615314947535721, 0.04240775687667943, -0.0686281687578002, -0.07231927237822885, 0.5850988878539486, 0.2762113817660037, 0.4048236488333449, 0.6959033104955116, 0.8732254555787058, 0.7759731497703398, 1.4180665121677951, 1.2050713781323479, 0.8730144645505136, 0.6508936708996071, -0.14616070587053606, -0.5498992332154725, -0.6954174457137767, -0.6053044558583275, -0.7429691268693208, -0.853159546484646, -0.7570524204750091, -0.6373583181239043, -0.4319240722779215, -0.302591081510931, -0.28251733957028746, -0.2309003245856605, -0.03139223560603229, 0.02787885349372392, 0.0033675028058657024, 0.031504437762626215, -0.013354327683636218, -0.030344250275058, 0.4155454476494706, 1.1576318126959517, 1.0756150280895853, 0.9948138790112888, 1.784875679160972, 1.303161862078262, 1.305797450833479, 1.486608958234682, 1.1796954979563978, 0.9531010721223251, 0.7840358187233382, -0.14713286257982092, -0.3450303572971906, -0.48733827990637035, -0.3339465132316133, -1.1553095995241602, -0.6113433789842924, -0.2664758771067593, 0.04745110437880565, -0.08656882151837739, -0.21303284143382512, -0.15149120567351398, -0.048768815404006766, 0.043972859379156216, -0.042951376697763916, 0.011278371745900361, 0.026126294888431323, -0.007643774979786431, 0.032073865056560846, 0.09930439242097402, 0.40525800518072747, 1.5688380363747652, 2.2767830677756793, 2.3642289936352494, 3.031175226683816, 2.396945465706805, 1.1519770223727226, -0.2609776164588825, -0.31093602069022075, -0.09849303502884237, -0.6784904441539455, -1.0435515153037955, -1.1824121036927087, -0.8216687164858464, -0.31694243486885476, -0.007019809677631332, 0.45956185989208115, 0.6901173423877401, -0.07820990902856484, -0.26106483965222627, -0.11021704265832771, -0.0062320660647337996, 0.02945723526233505, 0.001005114934475516, -0.0037651541060813305, -0.013593929770427364, -0.24036937667345984, -1.141171739230824, -0.7929719724330632, 0.29376483773877293, 0.8962658282619964, 2.003921279034552, 2.380169878089137, 1.4056646971762599, 2.3544331091570396, 1.7893056817678763, 0.5103490764985604, -0.23003530588638169, -0.02309401156359383, -0.1854869360960333, -0.22128570678951287, -0.20608512759298997, -0.3147567094847051, 0.1416059946219103, -0.0028101188726023223, 0.8314605029308689, 0.17783766048029667, 0.004301771651020414, -0.13527754853916946, 0.01754815323663294, 0.018162300021673357, 0.07669741209448762, -0.0026432852761468805, -0.1145689928121659, -0.44952723154213414, -1.4359853141613446, -2.033332071833482, -2.811017787929274, -3.6367806015208672, -1.8389545767160813, -0.340963533403655, -0.4204013115002738, -0.5733825069484014, -0.24702285607557675, -0.770688645773471, -0.33179363371721426, -0.17915517012976348, -0.400983154719147, 0.47832208485049305, -0.6687544252884594, -0.30243672684295586, -0.266221818126858, -0.43371374242924826, 0.5170782155007985, -0.03950574404910146, -0.26666453620743585, -0.03527695994991418, -0.04763700807660731, -0.04786773601581707, 0.08624084903512136, -0.05811081582957991, -0.2111070806758535, -0.4106152572429076, -1.4448937832182829, -2.2231437767704803, -3.805129193004891, -5.518509265105508, -4.949354819673346, -5.061319434095599, -3.6031239153706593, -3.3517644062851577, -3.186922265081469, -2.3556817099598426, -1.5940323410461126, -0.0541933708744676, -0.4537472705392604, -0.697269856663977, -0.1552410611077288, -0.1027405985370209, -0.23742982054305664, 0.21492184833618475, 0.33545238681613276, 0.048376738170365, -0.15951402831917855, 0.023134029325900713, 0.02525302083562613, 0.007686139140299873, 0.060310783497345984, -0.06957008024557892, -0.06731961081552727, -0.14626957516469988, -0.9846506716509064, -1.5305094734884275, -2.3411236484006266, -2.888322662558243, -2.857058799071327, -4.0048700483126405, -2.877352292621843, -2.826164528840057, -1.754232370227097, -1.3246258666691737, -0.29790532574466255, -0.5599229636512937, -0.2373036915194539, -1.1414215187249155, -0.2114162181972521, 0.009538918053491718, 0.10782497321456819, 0.34766063472827924, 0.14750854539279037, 0.08119583190864785, -0.09094490343848138, 0.04865941165747199, 0.012514362429982216, 0.007762654069509174, -0.02474329866566286, 0.0010943135296340363, 0.020014089469941352, -0.17543110232498846, -0.9212110442458162, -1.5427005857083358, -1.4288902203834373, -0.20753810398539205, -0.43960350551589733, -0.2588765466947584, 0.4712323206187389, 0.19847872380259793, 0.3304144525188323, -0.13348456190551525, -0.7078882500175775, -0.7452098394045306, -0.6277060854306185, -0.23163379649336105, 0.15555320125989586, -0.04512095509795528, 0.15184005211591978, 0.21473887569947495, 0.3718608001742453, -0.2910093161467326, -0.05014962527895652, -0.0212336701019933, -0.035409777954337356, -0.031753912438058855, 0.031591536222448625, -0.02389501223617427, -0.11103201570897184, -0.0185930662783691, -0.3226466953223063, -0.8952435205991016, 0.0035894206076927467, 0.7684177123962019, 0.6818476026335647, 2.0760414568273977, 1.8866564753652102, 0.9250718811229101, 0.15872833472187273, 0.17359022940649776, -0.6002508588150934, -0.9098941793248692, -0.29228638337866697, 0.5059917880559041, 0.20261880951688613, -0.6586211311413612, -0.44213240049519226, 0.005267349428732691, 0.32497470929706523, -0.19311784877994112, -0.0305963591657914, -0.03740592630157188, 0.05548328083890706, 0.029443400882975573, 0.037035804816816426, -0.043650803536208704, -0.13951451389010552, -0.23436413056073005, -0.39526692788966716, -0.04434758421823498, -0.2424670983863532, 0.5153816249261441, 0.7788598650639683, 0.5019102430506639, 0.858615502329376, 0.406923803424496, -0.0696789199295854, -0.25359737848345587, -0.3650787023928053, -0.5201325021186636, 0.7248006671595093, 0.4935613569105765, -0.8243239106883755, -0.6206145101192702, -0.6052324991301641, -0.04999307466360292, 0.05022468333742042, -0.1654367323309396, -0.15264112227864524, -0.0004708187884982703, -0.07417712128125646, -0.027997025305873106, 0.004667530951744789, -0.018137068809083716, -0.038383869331540636, 0.040712447610142075, 0.09717182888945863, 0.4702775180647299, 1.2008935087876202, 1.5656673050045506, 1.6017248167675588, 0.28907645134476734, -0.017937614923277622, 0.008793730172063814, 1.159768332269082, 0.7094941629581191, -0.5715237105874293, -0.25231563659147044, 0.4587571151110296, -0.02561048968100274, -0.510982597732384, -0.4066367818163365, -0.7765996180590866, -0.13009538585637093, -0.10112059971528242, -0.11591068600642615, 0.01483444000070476, 0.05509662688826001, 0.04516479368976571, 0.009856736717087809, 0.023280709543290874, 0.010454914459124807, 0.06486306442182253, -0.07834177521310046, 0.32990237892067353, 0.6072571158498302, 1.2033855952880885, 0.6906298038656375, 0.677916481137985, 0.4789298866099269, -0.09573175563471029, -0.436814184471699, 0.26920104595358024, -0.5141358348703445, -0.4519546425546757, -0.8834231857231291, 0.049140160329786915, 0.5804215479230379, -0.25385788899361894, -0.4302188741520461, -0.45445992503754923, -0.17515203501754725, -0.1530827941944824, -0.09458239489590999, -0.009683311688509348, 0.0639271744946381, -0.007378958370997761, 0.016238007538039743, -0.04452004911752184, 0.00044138745352075747, -0.007836688439300039, 0.030026265939718477, 0.12985765997869808, 0.2531397521199415, -0.24073397114321718, -0.3148159134857826, 0.3460952729403665, -0.23131675355138387, -0.438449820890841, -0.2715137850203306, 0.44053386109311254, 0.46712205837552123, 0.060751482553723146, 0.1581532434518658, 0.3285188445813796, 0.3465570788924787, 0.2362674283141034, -0.2262998422941892, -0.11455408286209637, 0.16068841812747933, 0.10422805119214995, -0.04035283970427136, 0.0017422215804421166, 0.010723541913784216, -0.04301700236130435, 0.03047157323583855, 0.05483972258504514, -0.03997974602212118, 0.015312788622564662, 0.08151331027913637, -0.0068155590612055264, -0.06717358270547456, -0.33933169552776704, -0.4625866697476482, -0.424186210506861, -0.4590617843220756, -0.3243551651972748, -0.125950670108511, -0.21672861377333485, -0.27489878022702896, -0.4233151726285711, -0.20854711983808, -0.21059581778436876, -0.31493089794381196, -0.018438986904490477, 0.028532283877228552, -0.13121079934215113, -0.05309536900423771, 0.004459733768556268, -0.017186472546358442, 0.042361138471369415, 0.11055294218377228, 0.02545071559946867, 0.006859031351157001, -0.007713890842826817, 0.03342349272231648, -0.009818642598295959, -0.019980196846394235, 0.06285733956833925, -0.04498720001880906, 0.007927790381744943, -0.042989713447049265, 0.01489855575722082, -0.18044109870833663, -0.04752792409140309, 0.05853462104943873, -0.06576321945162981, 0.02830501770845915, -0.019841055671636125, -0.026945541075530793, 0.0014371553032185434, -0.15316348116871328, -0.017204525179161195, 0.056901099574938024, -0.08312769633404929, -0.056272214080889775, -0.0831778941135742, -0.012745538924435074, 0.009507590748231437, -0.03601925586038495, -0.02670108725842458], [-0.01811812815944822, 0.016961762898892754, -0.023976541809318998, 0.03380406763914706, -0.00375599379363887, 0.03337485565344411, -0.018334884737779233, -0.026014432163975126, 0.037678374183123704, -0.03220598293522119, -0.01389168562623967, 0.05730772476283737, -0.0012627145294473068, -0.02785654601879931, -0.0007428170636360481, 0.04745496699800958, -0.05679499652738832, 0.016532773184764076, -0.03665314484457895, 0.000721197128158915, -0.03709553548390842, 0.026611087287730928, 0.043517363907531206, 0.029066194359159154, 0.006968003842670071, 0.041880545249200374, 0.02903123471128227, -0.029558894519207467, 0.01914504530674945, 0.0030725654583011524, 0.011132192893298814, -0.027301379702597047, -0.0370448671271364, 0.048109662118755156, 0.02888313479542134, -0.014560646454438782, -0.044145867045248505, 0.05939550083037448, 0.04940880454621037, -0.024881375660050827, -0.1388558580947341, 0.01732397089130543, -0.06498774782317315, -0.09888952145981673, -0.11044831737287907, -0.11400368648891371, -0.04103527858267169, -0.026036735352616098, 0.005189550426505241, -0.024770420790549075, 0.0045314509047175875, 0.023916239175694413, -0.010557730499030197, 0.005372816813075808, 0.03649850577333469, 0.0390762386703219, 0.013006961241641288, 0.036264344798084644, -0.0636271649544362, 0.012876154170352936, -0.016274397990510336, -0.022246774781172388, -0.11592928010317272, -0.06623536530744772, 0.006600220605071477, 0.04953205430539404, -0.11309917967492622, -0.20537112993305137, -0.23348562707990198, -0.200019997540575, -0.06785950427438013, -0.11964650767318748, -0.2102266142507097, -0.2550389113217457, -0.25835216534603933, -0.20314100417707517, 0.01736102778408659, -0.06535473784322808, 0.0013997026893946944, -0.025967304060992707, -0.009831995157519036, 0.028601552567887677, -0.030549079600258527, 0.007423519687836737, 0.0066883855509152984, -0.038102918589838254, -0.015957780078260812, -0.0046576464336464595, 0.04122543185567247, 0.041551896172370116, -0.10182850813788086, -0.09929755899877092, -0.037944094993727036, 0.03927780881900613, -0.1228718424907922, -0.12417808660293028, -0.2535585681481495, -0.388811017780083, -0.1814319283180191, 0.0917075599125733, -0.30824373120176457, 0.021849759271347118, 0.050821068583643686, -0.1197024274897941, -0.02035694900845422, 0.19229248667720064, 0.09179053408390137, 0.009120956156390409, 0.0037688761156330418, 0.01414925980041913, -0.03750606249408557, 0.03861152166461645, -0.012916780396093, 0.009945650329765483, -0.02282384116750752, -0.033584945562918536, -0.048548357531800305, -0.013131275235251929, -0.12091572232765556, -0.09360749296383916, -0.3171848218235833, -0.27657533752777186, -0.8895650255418552, -1.0403362924402098, -1.0252651023771537, -0.7507122447486749, -1.5277173892206146, -1.6492199655365605, -0.5681643645938375, -0.5203768814047559, -0.24921250257109792, -0.3217621535319099, -0.05235643409072896, 0.12815043297301537, 0.135847961258323, 0.02829570975590945, -0.0036258099851934865, -0.10131189625385251, 0.010961474034677976, -0.004248324788880801, 0.031505405867440606, -0.05358889336035028, 0.02015845829077031, 0.05180717500825844, 0.03438334474057227, 0.09107812865911014, 0.013160414070362133, 0.09428215367607674, 0.392904734454423, 0.7098658057094199, -0.16651417307978425, -0.3823652886678502, -0.6742892504607852, -1.5729949847889444, -1.0112950259317965, -0.4945175446170492, -1.999498930737558, -2.030689069252004, -1.7498585267549633, -0.826307741423069, -0.6306174440146992, -0.7211522622239719, -0.8132393249088854, -0.10259044828348125, -0.13642013189694854, -0.2048884986674269, -0.0614042790447561, -0.021080095586933988, -0.009533362092568309, -4.414652317878619e-05, 0.012532226634800041, 0.08533710348799674, 0.11418420786620152, 0.32877364798592607, 0.39597447032768324, 0.20494732373246885, -0.20628676945427407, -0.05693958423886713, -0.7048562705637073, -0.34724486221935524, -0.06180696419736199, -0.5559506505277311, 0.030680503180018647, -0.7632687374543757, -0.27907187132392136, 0.7049867808299568, -0.42896286099877545, -0.20223672634995984, -0.6255656354872356, 0.24176238300437908, -0.610209632582355, -0.810354733684722, -0.439542725889907, -0.39309128566594065, -0.24381808766102311, -0.11528869054685822, -0.03533509495914426, -0.08571490949853934, -0.055563447104576516, 0.1526189847124229, 0.33004060846887673, 0.3532192285321187, 0.6266133933466614, 0.19938764493378974, -0.43694640330505885, -0.4064580599931118, -0.39800579110564493, -0.2919427706035151, -0.08154682001089315, -0.1697583925891502, 0.31001658675734256, -0.6988129470040623, 0.1745508674346479, 0.9025916212984885, -0.904474456174944, -0.3426003106650074, -0.5880648770724325, 0.31605231348009916, 0.04936076048563785, -0.5281710720466318, -1.1145734823786007, -0.7417346273774298, -0.327754044506244, -0.04454761558109232, -0.003009614955925678, -0.03641122948376128, -0.027038862796788195, 0.09663094337755541, 0.3368710681996646, 0.46483792072337266, 0.4670142188809895, -0.2605205033211314, 0.19122045181539807, 0.1828230761599888, 0.35619912409185756, -0.3264036268646642, -1.470201544132299, -0.8426119067508344, -0.2560132116200329, -0.0006192523002811068, -0.7995661966594328, 0.09301826499807485, -0.3749235058051935, -0.6418324568306681, -0.3656285788253722, -0.7971578617228255, -0.6273483476345514, -0.5875287348465766, -1.505778572586309, -1.0117886785006815, -0.31105530479052956, -0.04086417828426267, 0.011929365692492868, 0.011450000655838078, -0.014064430120556732, 0.039310317226796794, -0.03284217887205616, 0.20628925968100778, -0.32066954091459, 0.3294481933794284, -0.27360283195886204, 0.15986586475993286, 1.1234657934741261, -0.24173325936934822, 0.11052076691824769, 0.5108816036990328, -0.49415088475382907, 0.35304966785847075, 0.5363637504444184, -0.04940025210105071, -0.2825550212679989, 0.4299317330943863, -1.1216230566404841, -1.7714181165947767, -0.8234473156559006, -1.3859840817339724, -1.9865549697600529, -1.314554089738253, -0.3901718281433073, -0.014635663617191746, -0.021144457032672884, 0.0063303782753799595, 0.07190086658116923, 0.08903015792028164, 0.28559683543538145, 0.2236662895267673, -0.29694402896844957, 0.13320013348960305, 0.6263609629052331, 0.7306037666088373, 0.5855105425643837, 0.5738828829580155, 1.6655036463886694, 0.8782347855829028, -0.9386033959038138, -0.23069703411119466, 0.20330162335610788, 0.16495952415372203, 0.8674401043295258, 0.9690803496599406, -0.676027220023416, -1.4501711465816887, -1.4038939031765638, -1.8692247582424086, -2.3081825641160814, -1.4044244868471947, -0.4186099196028955, -0.07109330771690939, 0.011752167179071366, 0.044455560205972765, 0.05359234093624675, 0.1399371835679825, 0.576277914834401, 0.5072383700822893, -0.34898896650566197, 0.17758675670405627, 1.234083463546133, 0.7910484876122916, 1.248132787372613, 1.9268620998891433, 1.164112774033968, -1.066232928288054, -1.6660042502793937, 1.5907950145716285, 1.7282532091349496, 2.300366483716503, 1.5452157522467644, 1.609314347345346, 0.7148616940245316, -0.0387959093164859, -0.9089664012800845, -1.6133651052843043, -2.119958517263898, -1.1106266026265081, -0.3918957824605479, -0.029396306936523488, -0.06895839891951125, 0.003888486203346771, 0.023237332125091457, 0.42645500510515316, 0.8515318743323664, 0.24343735712299266, 0.33995865424798616, 0.9243976856030411, 1.462725009271145, 0.7528777174432455, 1.160174904175351, 1.1739486488503745, 0.043517202696940344, -1.5623984342019543, -2.2396775500493704, 1.2837802178489703, 1.4960486548868224, 1.734356932896208, 2.3589071726231996, 1.3823996643829732, 0.5869413498703124, 0.35897537296243126, 0.8505565063791584, -0.34324648582021206, -0.8518156362691048, -0.7125022637631594, -0.1883471784903709, -0.02731015140583413, 0.031766822645168724, 0.003355702082058632, -0.010301818072274899, 0.35328634871420533, 0.8728703921583524, 0.752117884087853, 1.0385110793186392, 0.33417534426868883, 0.7391568428056068, 0.4047396961433244, 0.49531735812677896, 0.4505365579202137, -0.4323419517361921, -1.1896908742285663, -0.5006182580695856, 1.4394074747433792, 1.6002827545322391, 1.7596914867584064, 1.072074872142199, 1.743605921914611, 0.49845519557291273, 0.7437357299214467, 0.2669262940618511, -0.19266025149504973, -0.44419514895054735, -0.6713269230519545, -0.2818337507437783, -0.033050209149235725, -0.051935529226693346, 0.039839539432832596, -0.007032654819613751, 0.3622462308071384, 0.7541660420726967, 1.0395929477279116, 0.75255798042449, 0.9594329637101164, 0.29038670270686123, -0.3676397844993924, 0.3280807932252368, 0.7721953475063356, -0.4651411372546006, -0.611453362363633, -0.5387478260180555, 1.0467583160527252, 1.9841215820664997, 1.3954588065346358, 1.1966406627387312, 1.943812080539227, 1.6465520078154634, 0.35829831199747264, 0.43411360330404, -0.026596537262558118, -0.28858721197332476, -0.496233226442695, -0.29839707962156714, 0.016958109008477187, -0.019876564345370166, 0.0262888270423293, -0.07396066987708384, 0.22166063311659004, 0.5028681018535256, 0.3010033611010562, 0.29188733867160976, 0.9819217114172517, 0.7642854984831573, -0.2364149005068253, 0.6646822683362891, 0.3230513116985584, -1.3356418593455763, -1.1338389729341418, -0.8450901639146234, 2.1850026479837688, 2.407525074846252, 2.4274168608095508, 1.436655984912936, 2.02972143814731, 1.9017046249464353, 0.4502459471907792, 0.3925633701286992, 0.229248433468111, -0.5020772304635582, -0.42768584759130723, -0.21522588071900198, -0.05263952947523235, 0.009695347919304188, -0.04035271710185467, -0.029460056099735836, -0.1395163275647634, 0.1833977912477531, 0.1911924287837544, -0.1747821851577504, 1.2826048778678667, 1.746909873869572, -0.4310866795465591, 0.4044700339805526, -0.7822902051870338, -2.071266776322817, -1.272230420082147, 0.08701215559851794, 3.1680802748985273, 1.3828820475088752, 1.7966330913662345, 2.2902446345290364, 0.9306936569695574, 1.0675211928679753, 0.39152722597241224, -0.1079662418612982, -0.5252970432156856, -0.7991225682039258, -0.6038394063607592, -0.16811128146302987, 0.0021660312548256845, 0.023978175049588612, -0.0235261703783652, -0.06400936050939542, -0.10170551325298237, -0.3897034481692069, -0.7376739865665282, -0.9647813207718624, 0.03090581446174829, 0.6952038615292393, 0.2097666023890957, 0.30113211779574306, -0.18427368273173905, -0.8200440671288769, 0.30642807998067567, 0.5735895370281836, 1.5592469079198448, -0.21030907465074009, 0.6629740912851069, 1.0400380948285355, -1.0176061711531876, -0.7533709664114229, -0.25271269027477716, -0.7452070212277925, -0.8416015539189818, -1.11428637786459, -0.47249639102536023, -0.1644665877552826, -0.023364400872488644, 0.024662774032410854, 0.01993465424709965, -0.09952464382967233, -0.23619808480449364, -0.6593100519117739, -0.8029054468896625, -1.821229832499229, -1.3386314842240332, -1.1587808791206522, -1.173882161389231, -0.4750041764149734, -0.09452547371216288, -0.5303461363309151, -1.1276605929762082, -0.10503894340485394, 0.21105180119055758, -0.5003290697447551, -0.15168285981528215, -1.7512937814906948, -1.685442292123202, -2.082794888980409, -0.9222672068339264, -2.38849919983615, -2.1851373575583377, -1.3699028339753354, -0.51477313185672, -0.13398503493513994, -0.042967929511188406, -0.019007366633135795, -0.009410495809466287, -0.049644297214361116, -0.2825889019815905, -0.7387639592324076, -0.761892706603322, -1.6751239486245146, -1.979160967600487, -2.737269434725498, -3.0535419680627705, -2.0898410663409988, -0.6324917690195081, -1.6735456213691395, -1.854005906654717, 0.5349315195258805, -0.828068890118863, -0.5242866806605092, -1.753462967750336, -2.1387760286438144, -1.840226049763281, -3.254463980460055, -1.9928955290875767, -2.7904122588749916, -2.537735000778425, -1.0445413293064074, -0.4384776944449557, -0.13392941316991075, 0.01813924341819835, -0.08523708871667932, -0.04099780725646065, -0.1959157182419946, -0.34497318421688616, -0.5305650613309438, -0.830289493842876, -1.9059742591714357, -2.814527405937006, -2.879495729465705, -2.0979906029698006, -1.2935121422476994, -1.664758296842503, -1.7583745765425625, -1.2743935218834708, 0.10462777435590816, -2.001697600366844, -0.19431200786710304, -1.0093299979915729, -1.3277354019477732, -2.189481515820871, -3.112277368306389, -2.448240768982837, -2.4155309304275026, -1.7784078040923843, -0.6703489727322728, -0.3015123752809826, -0.15242478467224405, -0.0016505861493680727, -0.013699977233496533, -0.061644234929876696, -0.13464813890725352, -0.5084120604190479, -0.6976931770089199, -1.0411254700164305, -2.1308630773361172, -2.296138142165226, -1.3461306076246888, -0.9358182370907585, -1.1241507538365947, -1.9312400195821302, -0.9859399974564544, -1.673799230823085, -1.862259650221008, -1.3175531967387488, 0.60397699678835, -0.8093208882013377, -1.308312659321181, -1.9328682344165196, -1.7833056275580899, -1.397308265403352, -1.400309273290825, -0.7942670875116093, -0.22963274558156346, -0.08734148768115788, -0.04359893032221042, -0.07395212758728444, 0.019620719335550003, 0.01596388199483614, -0.131357445914422, -0.3206591457110299, -0.8918524295214345, -1.4667733284265616, -1.5775616427646548, -1.0432645917381453, -0.08492528838102674, -0.3369293802838537, -0.6690016481307233, -1.4991473379545117, -1.5891344633033413, -1.3274246093472193, -1.0947430752075171, -0.6166172549576551, -0.037149078371584536, -0.5882113420764599, -1.0071493913948204, -1.0842335861572954, -1.2285184606200106, -1.088493825503092, -0.8019854319503801, -0.6009318107169195, -0.15539794791750117, -0.005548845964592475, 0.00047821144828137093, -0.00885766341172727, 0.05424337692722293, -0.005586814034049391, -0.06388782002962227, -0.286392027796878, -0.9898251627916141, -0.7363884878679238, -0.6488274990070874, -0.2609070342521289, -0.1569985569541222, -0.8332798220851058, -0.29875728392020023, -0.3266388389577721, -0.056061993428721646, -1.0332854437417114, -1.2855136870331179, -1.4408703282038973, -1.6047929867640434, -0.7926807788663154, -0.07116073773418577, -0.37070826504733445, -1.0873361514593403, -0.2685158940701029, -0.024890567469942, -0.062247506057692775, -0.029469515372858066, -0.04973644330893629, 0.001132619935649618, 0.02940336484155609, 0.02309172371258561, 0.02149867833768297, -0.05429184714748675, -0.2113204422275028, -0.3357148517922907, 0.5930202088746332, 0.9644464079689923, 0.3966297040731951, -0.5172340053469269, -1.0050452352747274, 0.18757437168514157, -0.8248138856518784, -1.171980069639038, -1.7146100513614673, -1.9037080488397675, -1.831325104925108, -1.413199921157775, 0.15247870246510087, 0.14647360081732136, -0.4332840733664553, -0.21289144728609433, 0.6598075605295596, 0.27076368396559325, 0.14426734051164694, 0.00764645906126515, -0.08026495831900317, -0.015350403712414891, -0.045276402675155154, -0.02157655026085108, -0.07728169033965852, -0.008611190603145576, -0.05519829154449104, 0.011453585767514827, 0.7496891127249714, 0.9476495061067414, 0.6079250086196291, -0.08431717220583088, -0.6151578527046706, -0.1029840785059813, -0.4149203435904148, -0.8221490309551531, -0.5407454123281656, 0.4725075836905763, -0.5924619046953086, -0.8871511010480342, -0.08896210126013764, 0.6258907225791113, -0.00907156286615098, 0.5784730091960779, 0.5555218775111794, -0.05745006957228784, 0.0400948899977084, 0.07850671729862604, -0.01780612501139774, -0.04605430883579336, 0.04258160778321185, -0.04720853257642699, -0.0009626492086929893, 0.07571317230266542, 0.0462068247451305, 0.1580350179641859, 0.2227221832653871, 0.495363220646792, 0.4849521599601423, 0.439059904023104, 0.5683978644327451, 0.6460059241177271, 0.20427409181667688, 0.22296020853894324, 0.5209804074866111, 0.9412241976645033, 0.5853045355784213, 0.14273457534411854, 0.3200690374291408, 0.32958464270509197, 0.14349719309791, 0.06727390639641806, 0.06608524156318787, -0.08202389635747631, -0.019256117044772897, 0.05258225213755801, 0.012101731318273967, -0.027503596514775127, -0.05513548797685531, 0.057716504845644376, -0.019871579173579314, 0.03387235289355879, -0.03649250740873089, -0.015233737015207718, 0.006553236233484035, 0.008024657167612808, -0.004818592293306566, -0.02591441490685463, 0.008140615031766153, 0.009910124160504723, 0.030212725293925317, -0.05629715234355912, -0.053752790044065184, 0.05453851423685967, 0.010572183678115663, -0.00799776839706747, 0.006460387678878747, 0.13150576577704742, 0.007079678198464197, 0.0390636388850891, 0.015445359653829021, 0.053005960280741095, -0.0008270168243582943, -0.04617929669057709, 0.02386196596446997, -0.030758378227098437, 0.01217220301793216], [-0.05777287223597606, 0.047624208540724425, 0.030518955680907924, 0.04684933863918506, -0.03957041759656187, -0.04590314405795842, 0.04171315008432637, 0.007306757225524054, 0.01758599250156668, -0.0016941914772074572, -0.008115264218046083, 0.020922182083251584, 0.02346900163834732, -0.00995991946091366, -0.007085668585551608, 0.0110003377744611, 0.0009239170775992351, -0.005413355298517814, 0.004025564036821195, 0.009576764899837987, 0.07037268854997471, 0.018006526465783695, 0.022682777415124904, -0.07257161545055142, 0.09548346434137259, 0.019917907571585732, -0.034821244528338055, 0.017414788139689327, -0.036027967272770245, 0.01198478561747072, -0.06257463679712787, 0.06456626546948475, -0.031110698968014626, -0.0012007320335939123, 0.0604600588366084, 0.015257389805814429, -0.030175883188637936, -0.02006639337214955, 0.026818280692771177, 0.08611712872135849, -0.0757101345060586, -0.03330337735248449, -0.0301474884488654, 0.14446249320594742, -0.012651438124382101, 0.049454631329107324, 0.021925163738809594, -2.7358388688350475e-05, 0.03159184561551419, 0.07007154757922482, -0.00016976956538980052, 0.014920940350127577, -0.06502856873655603, -0.015501022953604783, -0.010621117908733624, 0.03113392089141398, 0.009891682957482741, 0.05426710339643964, -0.012168072879772797, 0.019922262549455106, -0.01602644341595072, 0.04737231815821201, 0.01966916265978259, -0.033782267410336526, 0.015050568610406299, 0.008151874504373177, 0.10631460182359818, 0.06560546568636227, 0.026555374403302055, -0.2585531546046802, -0.35559385169991187, -0.12522275883650966, -0.13954418554441478, -0.2770167278123702, -0.3657940797406816, -0.23424071311246653, -0.05380692650655264, -0.08003070555627188, -0.06264553914948179, -0.03434658239543524, -0.02042572451714553, 0.00996088888548755, 0.0188180961899212, -0.03227393859249224, 0.024598884569147404, 0.04187004182205894, 0.024609550654691406, 0.08141765596863346, 0.01344933818854149, 0.0436392314752316, -0.020651218753062143, -0.043735519745525774, -0.2145833445253143, -0.3460640807110551, -0.5136583401085694, -0.4797435332321257, 0.22082590033543736, -0.457749169786402, -0.13639945637773845, -0.04416673975953599, -0.05409333131824609, 0.36375899709042986, 0.4959309464697332, -0.12505228755445025, -0.42834775636156425, -0.7561571623946465, -0.42036673788422335, -0.033991808516014875, -0.015419567637695425, 0.014253964949836658, -0.009326355680483138, -0.008380942570872612, -0.029616915681092194, 0.0453903492875968, 0.03193653924284008, 0.009885762967256002, 0.17810080859588537, 0.05188449247210976, -0.1172090597426113, -0.1332388972130392, -0.21330468145444542, -0.6996064982425535, -0.7470624898756182, -0.33728292170967183, -0.2320106755056426, -0.6131959968134584, -0.5346528334377986, 0.8990962872135764, 1.8187479707288625, 1.134521815745779, 0.9291420827897542, 0.2721711158745946, -0.5681755878506567, -1.1057090447411266, -0.7306333563696111, -0.7572084136815364, -0.25034302556949684, -0.011451793782027682, -0.014684928830641196, -0.018126172393347302, 0.010389421758797661, -0.013404970767824738, -0.07441975075029601, 0.035506691065016874, 0.18387248550005805, 0.13066299954369176, 0.19243879769273242, -0.17914787501945692, -0.6697328456121983, -0.4022288661223889, 0.1169767404556467, -0.9515251942620748, -0.6403845687006401, -0.6060708549299735, -1.1743716417607297, -0.4589362026707282, -1.0332907784137528, 0.0005525601187226616, 1.2100208606563636, 1.5292082503746889, 0.10467302854719458, -1.0561522253081275, -1.0740084585669532, -0.782653259638691, -0.5379357671714555, -0.1522547233745975, -0.0930221950530783, -0.01775668249791742, -0.07711020179454794, 0.004538088586103781, 0.0653473552001118, 0.05871668572130001, 0.29652037070738113, -0.028267273432664226, -0.2775124957625818, -0.43530846780006216, -0.6236431979028527, -0.11215789540859103, -0.5655664551404646, -1.0794106284691762, -1.0936048357993875, -0.07932223750026599, -1.0474525692794088, -0.21525058060891136, 0.9142201665112035, 0.25495798225575234, 0.8576036572572199, -0.42569832526819346, 1.2872581642708805, 0.4641510649046975, -1.3786132599042864, -0.9973373720984369, -0.8166405282787206, -0.15585019102194986, 0.03792639601266889, -0.0039697230844045585, -0.005861857790255769, 0.08164406701753804, 0.07505253682953124, 0.17570811489629704, 0.2999493888306503, 0.3169204800499074, 0.08075078116909472, 0.07401903259948277, -0.7251744103491196, -0.10565403444712686, -1.9537606572824326, -1.5993956079780043, -0.7494234719517457, -0.3260721578868796, 0.11224649313569979, 0.3910387760411991, 0.2855318491362176, 0.48002633501280284, 0.0388718383537865, 0.7868668387364062, 0.6378322556282817, -0.24103577719502636, -0.7441249121173085, -1.490291993156965, -1.6159814125325, -0.5485523112287205, 0.027372834914681822, 0.033675033737344734, -0.024060022255333106, -0.04699852580330335, 0.1645629080048564, 0.11350527071101366, 0.0028264388448341507, 0.09266923942550177, -0.3303149642764593, 0.07452310847558427, -0.20678247744597592, 0.22762729225139783, 0.3476710613458617, 0.2782158009163551, 0.6275097683548257, -0.1789610019037753, -0.9097267325514969, 0.04691674451299243, 1.0589448119348974, 1.2017137976572199, 0.7616852672472354, 0.9532100665874788, 0.7230842796473758, 0.5309601535881647, 0.24327954126537532, -2.3915557850522724, -1.6698589922269038, -0.30452248340873256, -0.023573730230443925, 0.023317148292114447, -0.03206293552886161, 4.6411271334401867e-05, 0.034788474347202336, -0.06056844818454797, 0.28748001204359663, 0.15728680828226635, 0.982596556729925, 0.9041273935235914, 0.7690414308897437, 0.44082380137966487, 0.9629879755650675, -0.24775813670053717, -1.5825276585489059, -4.254525553671491, -3.8290964603698163, 1.2210597241042913, 2.1660904750913206, 1.2009321468589338, 0.326929247316892, -0.2791804842068338, 0.8380744487112624, 1.0848737855710997, -0.330277857519422, -1.5664061779894576, -1.1873448841252785, -0.19812548356587817, -0.027871476247907867, 0.02291288024676343, -0.08077407554181765, -0.016522632586176658, 0.10023527788899607, 0.2372119685073956, 0.48773429834994975, 0.7419383811036783, 0.6479041371195483, 0.035949554775504385, -0.41369826530850606, -1.4739062020533273, -3.007310419140256, -4.205687410241142, -5.077399182658189, -5.133760656223098, -1.4797298844830062, 1.5379971556952188, 1.7787577918948096, 1.0743437761201766, 0.6295771628398621, 1.7006195669609416, 1.0798115523765306, 0.38657727340714976, -1.305809892524312, -1.4440197565165844, -0.9010878939339959, -0.4078891447362411, -0.16827982012864928, -0.057032529611385545, -0.07725863379477202, -0.02526305731640061, -0.0634702747153432, 0.048184036741434864, 0.2826906109060885, 0.20671268525534273, -0.7479829468050799, -1.6842620992638844, -2.4242975934927995, -3.277882657827895, -3.8328414609512906, -2.4819842051561936, -0.9221367707965652, 0.7512596367271259, 1.6121459345807758, 2.059627152207507, 1.3238759439061814, 1.3578685851854277, 1.896093215992025, 1.1478849477683997, 0.482482109788791, -1.0098008378072605, -1.543538014685354, -0.7675044426877592, -0.3826182343547067, -0.11075227246824766, -0.0869253452406705, 0.06344803281746128, 0.011616429543314466, -0.06289830195789099, -0.08910700026766763, -0.2566166173452028, -0.18062417298961034, -0.6508370528610121, -1.3227141325679554, -2.1574854804533037, -2.873776572533864, -2.42625543426665, -0.4653400265170881, -0.14210567010338085, 0.7376452580418356, 0.9470036295867971, 1.9401212230897908, 1.5441251951346906, 1.5169337772549163, 1.7152895583646945, 0.979597789586324, -1.04019751717839, -0.7916935110176434, -1.3308310134498877, -0.9112458890435672, -0.5817761374565001, -0.1380201566854457, -0.0025214556990828174, 0.05750784120762896, 0.0009470799851193359, -0.013884281430937189, -0.039093539011987234, -0.06242064369385178, -0.13662915643282283, -0.22893456784519228, -0.6861320606521722, -1.046862901101896, -1.59185531155884, -1.3741337545692291, -0.6712496965395244, -0.749762818463465, -0.9050972702252211, -0.3495966325642904, 0.11550027225714692, 0.5393240957279096, 0.7222814067611427, 0.5908115870320222, -0.5772039128225723, -0.7660787310372581, -1.711070794188403, -1.3996695453012742, -0.9295851332894111, -1.1947422431620935, -0.5107370712142255, -0.2624818537537589, -0.049606265031307155, 0.014469474849609924, -0.015813921704057817, 0.05004464314306427, -0.06836508762003206, -0.023644042009145598, 0.018536396330688817, -0.10152830526019073, -0.5714382841592679, -1.2059924807152747, -0.7790992740589433, -0.055838985726232276, 0.08631258042686511, -0.5696838353601821, -0.0257733906692425, 0.9205602452686141, 0.5701065604078878, 0.6839245319515174, 0.9064387092851106, 0.5502562293979721, -0.7127897512469746, -1.5921447050528945, -1.5451642674255726, -1.0451517066951796, -0.09050503425113339, -0.7684878006791174, -0.507288661419554, -0.04998108488681369, -0.060438778494289636, -0.051977609888514395, 0.0009563272396895877, 0.0029055909297581155, -0.014770907601516078, 0.009704461270904553, -0.03377163150110189, -0.4011944082920937, -0.7674378381110729, -0.8923953721121237, -0.9431353753719944, -0.49426099713726995, -1.0139138311766076, -1.6156127834419618, -0.8382982146069912, 0.3025947347885688, 1.132155503273486, 0.27299656651430004, -0.04306722456096816, -1.2697325607598273, -1.7566981139341333, -0.7458147256115827, 0.2053343366362027, -0.6329185606108436, 0.40414089297779693, -0.2787022201716093, -0.10318510246218776, -0.0951433240286881, -0.043087614013726794, 0.019710898080580037, -0.01542760618881603, -0.0067046311521631406, -0.003534477201194465, 0.09262977653368609, 0.051311341143986465, -0.17026611910616915, -0.11362380704531665, -0.31030371317881056, -0.6180232910251812, -0.7707143146901638, -1.2608944876171557, -1.0941440366290272, 0.5143044300755207, 1.3756728193608108, 0.8691504011268749, -0.6073482447819053, -0.35779509203772786, -1.268285604809953, -0.19107528333414725, 0.7341316341676222, 0.9345832905450189, 0.11218740999741075, 0.49879104375709093, 0.019955521364667966, -0.016867749983569498, -0.06424642086241697, -0.15461947352231947, -0.1192589005228936, 0.011367615510958665, -0.047125181001660285, 0.015423438170941786, 0.12377966464927251, 0.2665215105289286, 0.6199317697363297, -0.627149570964233, -0.7374372653173792, -1.2003886911455934, -1.1463531583673414, -1.5260446904854124, -1.6551481155288648, -1.5998604814508244, -0.9202819915047222, -0.45468590534503056, -1.4041058421569736, 0.0573016970674554, -0.28907728670576016, 0.766309610283454, 0.25195235392664483, 1.3292125380700246, -0.10844626718642064, 0.3121172577835287, 0.11290834985124355, -0.2971623947794251, -0.6063641120644804, -0.15896954989961135, -0.09907806708861011, 0.00674126613163997, -0.016805056255783376, 0.006001903258155482, 0.026366767693527842, 1.0158987012648344, 0.9574542810120155, -0.2671559438827019, -1.519154312145965, -0.9442097268400402, -0.41770578492971633, -0.7581186347602541, -2.3976925170039305, -2.525384215743404, -3.7130548048428467, -2.666908920960296, -1.2550163084919663, 0.025340559533494147, 0.2274772566983291, 0.6166671627286733, 0.9803980781023058, 0.9725390389346018, 1.1743147284640783, 1.027051863063702, 0.23748850989377468, -0.30161190145382727, -0.2518854657756292, 0.012888959343393234, -0.07566219206889856, 0.01169463122692974, 0.006881330134607338, -0.0011035216568941399, -0.07850081424349911, 1.1970871108975394, 1.7103496778422007, 0.5197818257313747, -1.078077136542034, -0.9843950866596006, -0.7432266266872026, -0.45191455132203073, -0.9722455387437203, -1.0966460263064088, -1.7001211736006758, -0.8971061619061281, -0.45368243136174, -0.6278497976071014, -0.17631598442961027, 0.7371098127413226, 0.893020778432676, 1.142694813540515, 1.0549557559693135, 0.6919922211817912, -0.3866426205027991, -0.6111485004879573, -0.3162503859459537, -0.04301539751754454, 0.05945545504108673, 0.009479777011912027, -0.01850029006389961, -0.07154838735846593, -0.033211803171981163, 0.8609783319791636, 1.9920355461797568, 0.7973801474855651, 0.27873388989268605, 0.18200142216071058, -0.08203030798889553, -0.8275749926070674, -0.4831773579847035, -0.2704785039720776, -0.2295740944932158, -0.5819949539081551, -0.7598252421416617, -0.3722847829816111, 0.28493966142994614, 0.02203259605709547, 0.9001907794640642, 1.121372989008423, 1.327181973880116, 0.31904849251356904, -0.7061868215228099, -0.6510799841322122, -0.16824427937471798, -0.06728250314882125, -0.0074534536083604224, 0.04486678472645734, -0.007577285889939917, 0.05942468180939455, 0.12169912915569628, 0.6210741722761373, 1.1179085306417382, 1.2859524905178328, 0.5483701756327112, 0.31990561164137177, 0.5359838790052427, -0.687134230654264, 1.21234838806187, -0.5290899654673543, 0.026625168757317498, -0.618340811396298, 0.3525407309465854, 0.5499458909543086, -0.15261883514788063, -0.3439024148925164, 0.7431198547960945, 0.0717541561460866, 0.2785228001676431, -0.7268758787543377, -1.3689720843097928, -0.7795411814128719, -0.2231407259149737, -0.126842946064386, 0.0036130956443808427, -0.024064064272261064, 0.05390264986003867, -0.1029292449339863, 0.23699312388876922, 0.4866698048757864, 0.4586524058797912, 1.5724325658111584, 0.874871478723129, 0.6578059321307295, 0.09343321846716021, 0.30357077714849795, -0.27498853620110875, -0.6086899513627786, -0.9363152454631285, -0.3832218316272069, 0.11220505206151862, 0.22011241404970924, -0.36083492915883664, 0.023624070223971626, -0.6944336462538667, -0.34195929725083973, -0.3038469291545247, -0.9398443336867335, -1.1860413564380585, -0.7327395887799012, -0.3400628916480562, -0.051564094977582436, 0.02656627533635231, 0.07416802852599626, -0.04342418847579342, -0.013950925548476382, 0.15820812627178343, 0.31661099080464244, 0.8985043789727698, 1.6835336812372892, 1.2874743655944811, 1.2782645783690787, 0.3853753178203575, 0.5877994522791393, -0.6763089753667931, 0.13469964972228776, 0.7671759599591415, 1.0215969856382452, -0.1735395095292082, 0.28872346911582364, -0.5317475737753392, -0.04980221038131273, -0.36377289770658994, -0.3404061509573969, -0.4579852600694037, -1.0673905302485152, -0.9570654450114594, -0.5107455399140494, -0.12370809364435308, 0.07112425516406032, 0.05513316429059404, 0.015180587089736196, -0.03103290194892331, -0.020711265933686857, 0.12711357197730713, 0.1990529409329358, 0.8330719106169439, 1.0110299186111213, 1.034622103581667, 0.7826142330505447, 0.8798406936790925, 1.3634662519371779, 0.9430634194706784, 0.3324338191411376, 0.8642581185883851, 0.6992640250201159, -0.13704009320170402, -0.8222495684578232, -0.29096389443957615, -0.2362007846988015, -0.382051933815404, -0.7312076721471442, -0.3781764870389862, -0.3368744285285361, -0.31556590903539805, -0.21897691042994413, -0.033471154365582595, 0.045604866345168964, 0.015827818949345544, 0.005167742474583696, -0.028349418460306548, 0.058559622786652867, 0.002202947208504817, 0.03842930654987289, 0.25888196745578507, 0.2475974472484416, 0.3151267761102817, 0.4367444964129634, 1.0337678915311184, 0.9977186920988501, 0.7012591865548593, -0.06556900765706565, 0.6406851273859112, -0.1628008565518864, -0.46073774463372086, -0.8551041737086621, -0.4423288365691321, -0.3644140139020769, -0.04770544422760644, -0.2890015720563422, -0.3680303683870103, -0.45721123474334735, -0.23475259710870455, 0.01105572409234056, 0.023869854246700756, -0.08200659822721192, 0.0526707523197109, 0.05891267339503337, -0.0938416209217642, 0.01664436056583658, 0.019742757504280842, -0.052236360183913505, 0.0007274106387104237, -0.08902230386293897, -0.11931133920562835, 0.01181352446570724, 0.26459419263368356, 0.16904286186270262, -0.16500790488332054, -0.40311846906585835, -0.3584878411788, -0.6240491531272414, -0.6225289227330735, -0.23643102444199274, -0.06271549472881512, -0.3285246535765346, -0.3777213589966934, -0.4579899879996606, -0.15437788600865515, -0.01998558734306645, 0.020350990841211697, 0.06849338335435574, -0.04907171009448565, -0.04855187834527861, 0.019231692613229802, 0.058325940652612034, 0.04267318128810813, -0.07100308653446086, -0.027585314928686714, -0.011374106112982313, -0.01180803601605476, -0.06178235706367501, 0.02330178752960968, 0.07846621259254018, -0.009416539438751894, -0.020887275778374764, -0.031774254655408986, 0.034594356167268, -0.010893658349496363, -0.05365850527197575, -0.03142842207202707, -0.07712603180942557, -0.058742455494781146, 0.05009880420173511, 0.014800007998296835, 0.05722293729500525, 0.01027923220825358, 0.03005951851576143, -0.03788470681483881, 0.015368521779305264, -0.011007395392633873, 0.0599607153122591, -0.08625595375448188, -0.04512690199421791], [0.030734629433561814, -0.04033492583660284, 0.07602272723455583, 0.02520983284450764, -0.0269679824078162, 0.001527133997806992, 0.033456767400881736, -0.01973718727287698, -0.03120027306038294, 0.00565828872146195, -0.00028995621059882187, 0.012210590813224424, 0.015480828965536608, -0.042299288210424404, 0.006286808321895867, 0.0022733740491971523, -0.017107981503865523, -0.07847325838030629, -0.051302721470432765, -0.011609225494835992, -0.008619539789452534, -0.0006078233988809954, 0.026056095344844373, 0.0107510988751694, -0.008705098761863978, 0.016900298048895018, -0.0717063214330849, -0.04959172164516631, -0.023110602966274957, 0.02758615601540192, -0.014926987092387429, 0.03091434311667043, -0.034740433150606195, -0.027155774461017537, -0.021651780494868513, 0.023515773224186288, 0.07252367930600545, -0.03131443851846113, 0.010615325432237248, -0.0069927926625958465, -0.041932474594997556, 0.034677851510083034, 0.010962665596997542, 0.04107390634213213, 0.04553793600291833, 0.047820361892105014, -0.003066274450587414, -0.003498928842748421, 0.00866014196500592, 0.004111539580801593, 0.042157578598520595, 0.01817086275724468, -0.08946620270525041, -0.061181687837587796, 0.030795975934768717, 0.010749319126634915, 0.0037388481600433817, -0.01206377582440119, -0.02344528904083779, 0.01317278366603036, -0.007441569735166604, 0.036729903703611004, -0.02500051154444429, -0.008201449607453221, -0.0010498607080624087, 0.0053794232030390365, -0.04377321472186541, 0.034947310413572255, -0.04151133003157756, 0.0024545904636132185, -0.04301831234785245, -0.05006701300791993, 0.019807044075019792, -0.03330373042574823, -0.007238011517819635, -0.0011588904359767632, -0.006129580600483611, -0.00015666467991916878, -0.050758888965624964, -0.046291318733429426, 0.06935385141110634, -0.005412306661669203, -0.03827910828602447, 0.014467222031663313, 0.007159781794348996, -0.044140917922883334, 0.05425896656626869, -0.014405155721459952, 0.051526913159859855, 0.020914048353569695, 0.015919715934952196, 0.02309335384343705, -0.026380640257694318, -0.014173354792484959, -0.09627511249950232, -0.03320360379967534, 0.22007601048621556, -0.006185886567113296, -0.12734057308883479, -0.06414256865024823, -0.12220913906394446, -0.17336566902545547, -0.003906879042135446, 0.04305872448176637, 0.07257855916234364, -0.018210062472393318, 0.019784734564076242, 0.013990800820480447, 0.031922960772569065, -0.030717068294432246, 0.0315779135678059, 0.07211165666867822, 0.04184113882561513, -0.00082485509785827, 0.07766455929208375, -0.009874816174946805, -0.003577699071011154, -0.025712266376682225, -0.022189035080016305, -0.053856376611259464, -0.1500792979870748, -0.14959946776812774, -0.21744276542578417, -0.2648979354795797, -0.28456713379409226, -0.5125757452283116, -0.7162692693041015, -0.6821478682425786, -0.744139914870316, -0.5286013237973369, -0.44974200240066975, -0.27793734634923467, -0.06092852630980505, 0.004714984543768676, 0.20156099107856149, 0.41448457934146643, 0.34949203049944977, 0.11316751284745385, 0.060063382386687424, 0.00861130856053232, -0.00874160867850892, -0.02349235892957546, 0.05764114167472603, -0.007519880156674528, -0.058103079076144086, -0.09086421862916186, -0.23333115560119302, -0.5188428002866917, -0.5450772099070209, -0.5988291756272288, -0.5525137871718279, -0.6531681314688245, -1.3254892885803295, -1.9667026561161758, -3.8572051945882473, -4.443075969888989, -4.6972566198822845, -4.157458693552781, -2.39198406715153, -1.2758249085961069, -0.5969917938831656, -0.35791983728311444, 0.2784716582842211, 0.4174235879324837, 0.42507638132286535, 0.2868669302366735, 0.08958003949305221, 0.019108140135575522, 0.0137827224679906, 0.02706705993827249, 0.022426517216657855, -0.015108904766730344, -0.10345753272218997, -0.39946345257055127, -0.6275514695713349, -0.9620045121194607, -0.7911916245809925, -0.1506774380561385, 0.5328515507190772, 0.7448909298390516, 0.9038070344277526, 1.0337854573507501, 1.5308647039518763, 0.20840110905293224, -0.028403880172352056, 0.08219659529099387, 0.7811462699970083, 0.520586164466749, 0.7120663631095088, 0.31821001750343636, -0.3552646387480717, -0.27117420531546244, 0.10357571364338287, 0.4302669761855401, 0.09530108055818873, -0.0028100137256218236, -0.01689778089696274, -0.08293501055571327, 0.057881978413039936, -0.03142281536049329, -0.33570268664557357, -0.5699432895058201, -0.5193391300818357, -0.7366806134094532, -0.13415678155620767, 0.10804331148466884, 1.0956525928149305, 1.8163502590048035, 3.23312582249209, 3.1028364547112903, 3.8512631161620297, 3.6846543252226738, 3.0880525872480726, 2.8847966578533915, 3.1520074656621806, 2.8608900860105266, 2.1788064082439536, 1.1531381274686476, 0.5879541684132691, -0.070188558201929, -0.16525396081931684, 0.002747247295891445, -0.005523365745338129, 0.07920720965364297, 0.04908924424853997, -0.057174565121239036, 0.011240766045675914, -0.06635819485293902, -0.3958003804836428, -0.5293337051667759, -0.44141802714471234, -0.5436822077992832, 0.2251049609026979, 0.11778731316739452, -0.22293762320782695, 1.6123935450633884, 1.6246645445672832, 2.5283676492903138, 2.796763236041, 2.257664604436038, 2.9936884249554687, 1.9123049937055665, 1.5394158517764938, 1.6037750888380393, 0.45052429746303785, 0.3356318801555606, 0.21162628966063102, -0.35000489126738304, -0.2610327491750414, -0.24381840746863667, -0.03048442635018594, 0.026667278431596986, 0.03256741291686859, 0.06513793049761359, -0.048671453031648555, -0.007656339138943792, -0.45806193476957324, -0.35966889772808364, 0.1513361031218856, -0.061304881542065315, 0.28942930203886513, 0.788530921735855, 0.4207630779739931, 1.0367690622113204, 0.20094144694177463, 0.9484671572432881, 2.076272344843395, 2.0938275119424863, 1.0900882140321433, 0.48466668742445845, -0.38257535648764973, -0.48290744640477334, -1.0670622504207743, -1.2004669181838754, -1.144735549411015, -1.3179301673441088, -0.2977809593950135, -0.12814919239469902, -0.03639479356909764, 0.031371882108596906, -0.04861911615628767, 0.03853126117031843, -0.20801363174036905, 0.05326849151248725, -0.6061626338720632, -0.34566895634701506, 1.0424914161383316, 0.7839583140539598, 1.1299347531982165, 0.3241682440158999, -0.014073859430090006, 0.6129227257503992, -0.4993932138231366, 0.35246337517276694, 0.5555243383155123, -2.493997464846603, -1.5720943413994224, -1.949255202378065, -1.1691769166127997, -1.362888145094173, -0.41461542529759715, -0.6180385249422832, -0.8237846137435373, -0.7696505018359245, -0.33968092082061535, -0.029404144191148538, 0.02973675170872195, 0.012569905539594039, 0.01679030582644502, 0.014321723837687402, -0.1060294542780989, 0.15870659705699083, -0.01787690322579424, 0.3879169100431605, 1.3888882409898287, 1.767290044279554, 1.7236348970215096, -0.797070233806685, -0.8277070584725138, 0.6663277151356977, -0.07731374722633116, 0.48384873197155936, 0.08661570259103388, -1.1639473823375728, -0.30054441922862896, -0.36438566301407177, 0.6679307318909339, 0.24382934780616722, 1.6607082859692033, 0.4640196776739075, -0.17657616110598895, -0.21620572606624378, -0.08182093518035245, 0.17376906442762857, 0.028847385811259427, -0.009116261632224287, 0.023053903757855956, 0.02603018860247221, 0.013311657922840416, 0.39052862476275074, 1.0913082877023141, 1.0027132868423976, 1.4100192803272125, 0.6614730816791176, 0.34241739186949355, 0.18415117271264922, -0.12278661163212308, -0.49612588794297735, -1.989536696455336, -0.7390604301933652, 0.5847693585173062, 1.2959182393090716, 0.5590768043837239, 0.6291940519326037, 0.669309339425474, 0.12341285377480166, 0.2962719613832019, 0.21379413982896397, -0.520368275954562, -0.4649407800217255, -0.6354296414011641, -0.0348510173251373, 0.044063415836730485, 0.005051181282402033, 0.0005150630507802991, -0.020139173637168127, 0.0025269456661799754, 0.410203723176947, 1.0680100119662326, -0.15750989472291263, 0.159100674194851, 0.01498188598773236, 0.5714458685335955, -0.0677349182649223, 0.725539899576198, -0.657954690876503, -1.4704290401600357, 0.05368494485068278, 1.3599838489437626, 1.1416921025407276, -0.26533094042285, 0.14297114481557044, -0.18339871451275455, -0.786209933224431, -0.31188253612856165, -0.32353713619564534, -0.9210505777720336, -1.4873597940725973, -1.02344644188933, -0.1786617984351412, 0.021471036341455186, -0.01940297383354277, 0.021941173796171737, -0.0008361272493163257, 0.017554250018026844, 0.274174917389703, 0.04960325126241635, -0.7417012333857931, -0.36177119937928015, -0.2775336982599023, -0.1454762012587985, -0.4674673494299745, -0.6544807953821725, -0.42730429492414945, -0.24495056109738358, -0.18509542420090314, -0.8620528442405214, 0.013286358312969789, -0.6006283057815704, 0.17987574822600982, -0.9049121980690722, -0.731893080111828, 0.3053966056496597, 0.0373984792835643, -1.0519336709069766, -1.6422027517038984, -1.2160805072362804, -0.34182679997159066, -0.03088747158223356, 0.027882739895014684, 0.01945442598586129, -0.05245537799393501, -0.1392209994945054, -0.29635859246540497, -0.38957873756271855, -0.6414484773543025, -0.36066240082606177, -0.6892661797165587, -0.4131847539421473, -1.0888576918415511, 0.01284030191062003, 0.4381965131258416, -0.4806621618823372, -1.1545195021376804, -1.3835358507922642, 0.10439357751722385, -0.20434616460996863, 1.2500808025400039, 0.35445703067088596, -0.24975144456596998, 0.5129049116485876, 0.17122349424741287, -1.0082619335742562, -1.5212517423932315, -0.9895220228946414, -0.3553955363927778, -0.09318540357495998, 0.0006836714362287381, -6.772871337013227e-05, -0.0295581199007502, -0.019205860370025356, -0.34446867038714035, -0.22550144126436727, -0.6086577661781463, -1.669972415104549, -1.1934835987108567, -0.34133643651096335, -0.6888679108687437, 1.6858778383397324, 1.5900858173245966, -0.3433299716464629, -0.9825602875558975, -1.5555628384405344, -1.6845989813181956, -1.3139700751343788, -0.9465526040777733, -0.1494959295665535, -0.7991361276034561, -1.3281159919657937, -0.8698955429580244, -1.184262341703063, -1.7259667390840578, -0.933981427692773, -0.4098572697280578, -0.12222079511503797, -0.10587763912774734, 0.03899843522485597, -0.04897276063917739, -0.11852661573533411, -0.13151099434168523, -0.35896699774297236, -0.7397222572412976, -1.095166601069139, 0.04802321600378354, 0.22713963774090415, -0.2280151164391141, 0.44507181533302226, -0.07743753311117518, -0.1527724635084891, -0.4299009315307487, -1.744448012181279, -0.9250906717948717, -1.489928464493551, -0.7876285380479767, 0.10000625545605603, 0.043771797016294606, -1.0808955854112692, -1.2587401946008963, -1.4917806024136069, -1.683333883762316, -0.9321117403130563, -0.2692700244701062, -0.030793464872659004, -0.002325309879524962, 0.026067367636356815, 0.050443753161593975, -0.14545840966355938, -0.2772391382797683, -0.4426071020966221, -0.9254739783726591, -0.8436190419951254, -0.6177868886996514, -0.6509109026003383, 0.07134753993983976, 0.879016515112051, 0.24737388011349495, -0.7249877118610366, -0.1666187379684776, -0.8668936806887441, 0.11934850589441946, -0.7984894886101512, -0.7271037014655585, -0.028056102495389083, 0.2624026746291411, -0.44894857080326495, -1.6864715364821736, -1.5564324601625381, -1.597990016431666, -1.0922784743674605, -0.40803477724252146, -0.07914062531773478, -0.09167344496391489, 0.027985601101471563, -0.04354889071872879, -0.08362579366661954, -0.3646942173601238, -0.59914163214933, -0.7148164291716719, -0.9392168399581551, -0.7761639692339197, -0.8094878678485223, -0.736631011496224, -0.8917972412747021, -1.060309997165411, 0.17555555395946806, -0.5439112177600361, -0.7479617339234221, -0.1131561554452461, -0.9131140076439671, -0.5408805615702941, -0.999395872809778, -0.1442115909464554, -0.6829705532572389, -1.5888579554205742, -1.2004473200309198, -0.9407277424882685, -0.6396834604458118, -0.36681406576913744, -0.33067361829851205, -0.01440517263536548, -0.04949317581929728, -0.07856479770168644, -0.09815824050140928, -0.40019010255973714, -0.8717918770574158, -0.5034155209569725, -1.2106549993889453, -1.5533312514386093, -1.1356789653319814, -0.8790533492686153, -1.8779810784775037, -1.4135716189226895, -0.40370412174215053, -0.713661953704371, -0.7633030374742988, -0.8319076898099084, -1.1424387538052017, -1.363182034616277, -1.5975329396358615, 0.05428851127647379, -0.5087895327279585, -1.1267356444003447, -0.6979133691735288, -0.482419603252182, -0.2081004568470823, 0.06285926895318142, -0.15058483727319166, 0.03103775540781694, -0.05041105379742956, 0.010531267943353951, -0.0426164397611182, -0.2960864712834308, -0.5904214123028655, -0.7814807028588706, -1.4264638850232185, -1.550814655933399, -1.3799218055594837, -0.8373345875994473, -1.7127016515636029, -1.013200447451615, -0.8924920693927272, -1.2387719874268335, -0.8493736261039982, -0.7344037417048179, -1.273424165543239, -1.9541885295238757, -1.6086395711061148, -0.6258012659448834, 0.20709970364220756, -0.33167236734155436, -0.21091666765885864, 0.06090108528717037, 0.15012267000694754, 0.242611737983183, -0.030607381883739765, 0.02320823039204555, 0.013638248900841341, 0.021928186069426914, -0.05424675110583631, -0.1405343666633504, -0.23162290159640433, -0.5322280561794879, -0.8480394833499062, -1.3024130744876583, -0.7952639875956928, -0.5556571044132571, -0.9685862859475534, -1.135209643888637, -1.4296979237696985, -2.035294277818815, -1.2933723758280136, -1.2838821335088697, -1.518415185846416, -0.995517695541969, -1.6149475978253263, -1.333858821498984, -0.11360301060611153, -0.11172965245994622, 0.3342500155759628, 0.49545965401297387, 0.1408156368090344, 0.05095931268189898, 0.005796643096818107, -0.024863885443632407, 0.03649933278144059, 0.028997339820273894, 0.023890648259822456, -0.025518318841772338, -0.00029119849674940593, 0.12316669915824277, -0.23147391516666002, -0.16755053850220622, 0.2953672710786873, -1.030475736298435, -0.9546424823701035, -1.2698380807424443, -1.4192402320841837, -1.4483862021797067, -1.3929954600617696, -1.2175711667966924, -0.8847874771765499, -0.6980569463000957, -1.1862977921689783, -0.9208477446407909, -0.14046210844754378, 0.46766150855186706, 1.197805758859142, 0.8328820254454344, 0.06761377961451003, -0.1252973445903111, 0.007840973161897484, -0.01238937820305148, -0.038605160149465134, -0.042728403142285036, -0.0594841952441333, 0.019207907431278756, 0.20135317882713952, 0.6453588990082407, 0.688718482968381, 1.5995580616773268, 1.500197031965853, 0.29119341497779694, 0.20320316811150996, -0.1200307052174612, 0.3926833435488349, 0.322217754689692, -0.2089612478383367, -0.17423425414973503, 0.0066746118822922345, 0.5049250328739662, 1.0888352904747864, -0.06804057405034934, 1.2409458686075565, 0.9739192835579974, 0.9852416153469942, 0.5741210670145546, -0.12705956920342154, -0.21043803343796005, -0.03904321237118558, 0.0016161945975733227, 0.03014286278520229, -0.04857037617077722, -0.0477277414727141, 0.007769287006332298, 0.07279272799598471, 0.526452118797084, 0.6256539627424674, 1.464613490637369, 2.1079702685035904, 1.1237319569685966, 1.076424217954597, 1.5025321584377795, 1.7618788491563675, 2.132403366194478, 2.378554683249963, 2.760072623147024, 1.1200405759285246, 2.0591276967427996, 1.975861746487534, 2.0116946734674843, 1.4940366913628649, 1.4633242564546216, 0.7315443402174906, 0.4536121082018302, 0.07093058124152302, -0.007611577076370592, -0.0320945741091594, -0.03742961516332872, 0.02355907433437513, 0.050043011846499286, -0.03356187972339381, -0.03538438219995277, 0.09081027275645535, 0.11164284215171928, 0.28699523879149225, 0.516051283965916, 0.6047745800137017, 0.9139617761571688, 0.7467254699160158, 0.7426852265870676, 1.797825531950273, 2.0623529201131046, 2.8699380778781713, 2.167163307970598, 1.7996878300687251, 1.4879866138799074, 1.3720789577028665, 1.0918862056934882, 0.6546132259545868, 0.3536179821504499, 0.13245869042198608, 6.589854984426488e-06, -0.032048278206648684, -0.007403216221795466, 0.03572592055905945, -0.01304828812557822, -0.026478905698821553, 0.002040682118836016, -0.030074718474598815, -0.04997598605636065, -0.09468493182755823, 0.013385118962188627, -0.0596715293705278, 0.018471839486759154, 0.05083621641029553, 0.06290119581031257, 0.0756041782077855, -0.028089116641452447, 0.12007327660275453, 0.20506677638151194, 0.6131454684772507, 0.33871109420965545, 0.27092458376425854, 0.10632840412921055, 0.10722045004668733, 0.20062661897872183, 0.13983378767340246, -0.002096298537663642, 0.04584545404898627, 0.044911614742702305, -0.02307552966962045, -0.031424607728725545, -0.06332621872683433, 0.011604537486738882], [-0.014857618461766272, 0.04214586672492665, -0.062022141536943624, -0.04197915465394598, 0.039002357711832976, -0.010399954528556405, 0.01671620753924964, -0.04552169267870354, -0.0354108742902826, 0.0207901931722235, 0.014307041612945182, -0.01321300610111586, 0.01805419556386861, -0.010932494596723906, 0.016598862375194465, -0.04267197343888777, 0.03365005949082254, 0.023260801668472476, 0.05432263249953562, 0.04921547903339917, 0.015073253269673749, 0.009672999352637945, 0.0017240596858239309, 0.0060191027844942535, -0.03521944338734549, -0.03144255146014496, -0.026837594304716043, 0.025226654632319923, 0.019193772267845573, -0.031406310432192545, -0.03782085756831965, 0.024258736313809343, -0.006037843250435902, -0.0076529783290604425, 0.03171148950093453, 0.020664293448398378, -0.0758298722333999, -0.0022478251989852586, -0.06910159309565152, -0.10684046496616628, -0.15183320316472868, 0.05229302598589471, 0.015478450070815162, -0.038945483885275675, 0.046947369906845345, -0.03359246324949743, -0.04066582301520988, -0.05479995840562048, 0.02893093113302804, 0.013033077733846559, 0.023599683713123928, -0.003531693265894332, -0.035767641560085106, 0.02539195379099851, -0.03657154541713291, 0.09118821073413862, -0.016209575363454624, 0.029849027199736807, -0.06210987625164484, 0.016533184845888456, 0.06346693566660923, -0.08632585873101771, -0.28212937092479984, -0.33465035037730234, -0.2563179989982212, -0.13707179579082449, -0.2816023682467302, -0.38518299515473237, -0.26599534533727814, 0.06381594796210847, -0.09001426570077252, -0.317872820051429, -0.5800709944288599, -0.3161964231749742, -0.3529559023879306, -0.3100854788789402, -0.15639335088543574, -0.13840728061004984, -0.08939331115781123, -0.06676801904490726, -0.03723987283602419, -0.015777493100346464, 0.02789164289943097, 0.05477426322954458, 0.02375887156745335, 0.035556867145681334, 0.0580229445224737, 0.012329192703589079, -0.04038319198918484, -0.08463503314844761, -0.4216812492733168, -0.3705571811503593, -0.17807205700586812, 0.09596407660703364, 0.1585196165439437, 0.18971799513903922, 0.5027857930612268, 0.9352518627632104, 1.4480216162804083, 1.163477014616098, 0.6212154686715026, 0.32062364533826854, -0.17890535922023235, -0.309382280552659, -0.28303432420009983, -0.7780696940953095, -0.450653382279351, -0.33554299067400095, -0.013857323721842014, -0.011524754992938783, 0.037160207788052305, -0.03601174985319209, -0.004103455890281003, -0.018245531536043358, 0.0028851095413417543, 0.03843018554635479, -0.04443096978887894, -0.04845055476661568, -0.2696282236475351, 0.01057346237334955, 0.5408654374098977, 0.8059067229887968, 0.6847964604634759, 0.6131063879932577, 0.8044146798229259, 1.9595451221709874, 1.9614928842597774, 1.572813773616297, 0.3928180143958571, 0.313410177531546, 1.1619305823349657, 0.8379236830854663, 0.09231965198481498, -0.9550138137573475, -1.0402566129638597, -0.7456497752379774, -0.2868840285732167, -0.01839258447336701, -0.045002716013547384, -0.015104245023226982, 0.03847779137727996, 0.03700179058060917, 0.08397488411760744, -0.0058025949239850485, -0.030490520055366923, 0.011986199902969431, 0.05919565586615511, 0.4457358002531221, 0.7821604063555047, 0.38527285694170554, 0.8924064953046202, 1.1665546597746626, 1.996809671342819, 2.3200886248212713, 1.1245949202836008, 1.4308057412475954, 0.7297549768723528, 0.4113532948351977, 0.6277883525020944, -0.20975289414945422, -0.6686854843871083, -1.0920857310793994, -1.342519254154877, -1.3034637406233494, -0.3767430481386982, 0.001212316500548042, 0.005840233153623496, 0.015143356453479079, -0.004111996206671895, 0.012571520671278338, -0.07372839957866767, -0.03129942727362141, 0.2391007944340741, 0.26410333022186194, 0.19505820012811692, -0.2810123457779812, -0.32512883088905775, 0.10414986323371175, 0.1609135253539818, 0.5555025444359606, 0.452335248460906, 2.0056452846217696, 1.2061576973430816, 2.6644792556808063, 1.9142127814095917, 0.5571979315878046, 1.4833044389048224, -0.06804527567518538, -0.12347773077940431, -0.9138958551726015, -1.8704215127395958, -1.7133974071532019, -0.8079579698163349, -0.21056738203467892, -0.07316794125665467, -0.05252375524861592, 0.031087681728210973, -0.04241603774225874, -0.058786355192594994, 0.08964044053101443, 0.6273228136044546, 0.3322436722870129, 0.14218866393800003, -0.9043664243219964, -0.5375284773894705, 0.15818706306894945, 0.06387360703931358, -0.1099426993160408, 1.2968092491083203, 1.1560941976480466, 1.5971929138764347, 2.272207151952581, 2.2450921750906407, 1.5322775870987158, 0.3728929183799596, -0.10000573791197132, 0.2715748059134656, -0.7395479582793667, -1.8757578717652932, -2.5853304312942544, -1.5434909327631912, -0.48318127781645726, -0.10406797652987479, 0.038785171441883926, 0.03479544165746213, -0.014860579397628658, -0.011503619542298267, 0.03502940151762484, 0.3153558929979873, -0.35821620664881415, -0.7786476616609848, -0.762857896936216, -0.26083856254519155, -0.49538359732604426, 0.0037500377464615205, -0.8386050635886368, -0.09911517853680799, -0.45128697117238453, 0.7441529038087223, 2.143639619032303, 3.8428631068106154, 3.5511841831621727, 1.9735424387890412, 0.43781809580263736, 1.5148800231394686, 1.1088384644164884, -0.46700568608898574, -2.2080811902318, -1.8959313446949297, -0.6896365876685016, -0.14601839855687895, 0.06751410613161092, -0.009711453294270436, -0.03405208740032961, -0.03664808572244359, 0.06947656444082712, 0.20971683450328088, -0.46094513414287547, -0.6619088776584339, -0.6583982004379704, -0.21901820808467193, -0.3348100560227233, -0.11600223505394389, -1.591753230386626, -0.701329540411279, -0.6241094523734276, -0.7478464246174182, 1.528184324238816, 3.0893531373608516, 3.780562626611177, 3.2541123593620687, 2.73109882620073, 1.8385176745185619, 1.553416174998879, 0.4348801217160633, -0.8599865652813804, -1.2530678166999207, -0.4622230885125494, -0.0935640377602957, -0.0054080257325700085, -0.0030019007088630313, 0.023581775116277383, 0.18452013991585126, 0.3296751813865857, -0.14581897300379765, -0.5007813217040095, -0.930822492649167, -1.1630706691990462, -0.7149863506750179, -2.077026491918583, -1.7551755455544158, -0.506747790245017, -1.0325912039633451, -0.94138727233464, -1.0802514559905108, -0.4900124002713834, 0.7526265451332298, 1.8198814850763074, 2.7617379244011726, 2.553327483516417, 2.5246510290714252, 2.5707865733317323, 1.6196341226851614, 0.19941316154184338, -1.0240125533056161, -0.12815795381445363, -0.07056648475456301, -0.011658884382261453, -0.00024853969499907103, 0.0028601578248985916, 0.1937578998210236, 0.2220437885140571, 0.057784189488599064, -0.8174726067911119, -1.191417754124061, -1.6069549934604495, -1.4991356394753181, -2.1082149436099558, -1.3506902658812299, -0.9803559779989743, -0.7828264246635785, -0.42946739658041344, -1.4291734659626933, -1.1685824123988244, -1.4657431422132046, -0.2157760890491737, 1.0781253231760386, 2.1120858899360657, 2.666339916224833, 2.0927274876113118, 1.318238890209199, -0.2020351822591292, -0.48257364197323344, 0.14189670865292836, 0.010769199265218306, 0.03961004885842816, -0.031966803963584485, 0.00518437227972882, -0.011560599580055864, 0.13293674410416711, -0.0778202709052823, -0.6138054829112561, -1.1445028628757494, -1.85812695962626, -1.7928833628896776, -0.38913378589060066, 0.2843980933467024, -0.5701732267452346, -1.1704648700933222, -2.020696306747581, -1.9802857668075273, -0.9624122372008435, -0.6540314704804837, -0.991088585912492, 0.42713977703377026, 2.3618104347001223, 1.9021207227736456, 0.4867807199993033, -0.45869556013270846, -1.1237926851649225, -0.6390824016717552, 0.013194099726119452, 0.01614527176785409, 0.006345722318305442, -0.025250935135333764, 0.005109030689906599, -0.019296805182342273, 0.09856381674309338, -0.14746479175176835, -0.9860982546252188, -0.7595684554484488, 0.3219773070162157, 0.6879519448811392, 0.48260060348953326, 0.18856095935195755, 0.02143567548001468, -0.22520104426125948, -1.6038823125796537, -1.3639738481569772, -0.8620800086575352, -0.6098620578787114, -0.29072323189445703, 0.2151236397879706, 1.1809737049873197, 0.5809636831873469, -0.3509676850262498, -1.1792005573398194, -1.4470476507980097, -0.8105651697448667, -0.10367603599985294, 0.0313740996671529, 0.11007349579325233, 0.013624136864080155, 0.0033124124134240786, -0.01689106013931822, -0.1804666374466929, -0.3386849280156218, -0.47297764577274465, 0.36571562376578537, 0.6249285175129228, 1.006094939324284, -0.24541717795521434, -0.9088206949185413, -1.045448605767888, -0.26354537801363304, -0.29202219460835205, -0.9009646805000813, -0.5379502253747664, -0.5370641798737814, 0.2035008484293371, 0.7835416133143407, 0.5065413603929956, 0.0803519117462992, -0.5972999503318831, -1.011785375371353, -1.5388326236922631, -0.8838785525926893, -0.23691028663644179, 0.23479498710194133, 0.03462851872026829, 0.03788001510769497, -0.011072381847137646, 0.00967086318600287, -0.34255767228447576, 0.09708255075707574, 0.38988474970669046, -0.06300791327846632, -0.8337166058143619, -0.6690354161285941, -0.7725835367628485, -0.78641752548151, -0.9212882183460467, -1.852719617117251, -1.0788108976785413, -1.55875748387666, -0.9504434666086262, -0.3374406767155861, 0.7054219548918159, 0.30426968272188576, -0.640613138310776, -0.9312810988169485, -1.0063781763907957, -0.48996226441724167, -0.6659824266027391, -0.5747978210635835, 0.10551224640304521, 0.2922715612155909, -0.0349073272607974, -0.05385684275228128, -0.011825295272944444, 0.06717792965236867, 0.03003351273353364, 0.8604308115314447, 0.3965519356991477, -0.08546342193031058, -1.2986035297100738, -0.33237931428044715, 0.10198175344311569, 0.17441035518849057, -0.4982026475208015, -1.1608321967589807, -0.9729360283121351, -2.2148790355104464, -1.652367715937688, -0.047043865307415146, 0.47731365729423997, -0.07305786136777775, -1.3300084973713888, -0.6201488673644031, -0.4239065138408436, 0.7729123284226072, 0.047348914484574234, -0.1886742396446704, 0.3327678331579733, 0.14758450620499938, 0.05265710719526018, -0.01509981046411368, 0.03139998363443375, 0.0051319922439621345, 0.09185172430148777, 0.828743363809825, 0.9041903876784646, -0.6045401903319215, -1.14868383141719, -0.18095814232002763, -0.4980076501381895, 0.0688310088564391, -0.7894275486390753, -0.9789534045281231, -1.3474983986382267, -1.6081631234776639, -0.6169925796719586, -0.16552782644512837, -0.3643665308003302, -0.39936291847615846, -0.3960772690163666, -1.1825772730599566, -0.050222706825317306, 0.833717729919119, -0.01780007591965575, 0.23639401601868562, 0.5419789185263938, -0.0012835887279201783, 0.08266580222302274, 0.03321738961059686, -0.014110075907952274, 0.18638116691306608, 0.19691171097468316, 0.7894463688430317, 1.5051594119080343, 0.026445823234869117, -0.29226318137490975, 0.03357523260310311, -0.46250592839479715, -0.12788283425197655, -0.01201551198248332, -1.4115201879895412, -1.4911681899604368, -0.029230493768050196, 0.21505538990502066, -0.18886906363954037, 0.24847094165030303, -0.09156722894455147, -0.09284180241911733, -0.2372630485224355, 0.6789404559642179, 0.9488509871698971, 0.6597316848884679, 0.7400137867003128, 0.8391056666804154, -0.0038023154550363434, 0.008231116066638683, -0.046474956165842816, 0.05463403710972941, -0.0499566108132509, 0.18870898554431487, 0.2948393612533839, 0.9714344858308198, 0.35484565903924054, -0.25960103891228864, -0.04441400319402142, -0.20572198703894196, -0.20149956387631188, 0.015190043954534636, 0.9642165619387703, 0.03792680028389623, -0.16551260627941103, -0.7592568228559445, -0.1936867258550428, 0.9461379045791569, -0.191759780761636, -0.4454361758666106, 0.04909793186721858, 0.3486077191556141, -0.09134497333506224, 0.5656285961860281, 0.7385503636916839, 0.44865989518360355, -0.038600140984156546, 0.018027122290316167, 0.003986353818502121, 0.006915222699304868, -0.12333344084798017, 0.22607806892241192, 0.41715507367348637, 0.5745342405953485, 0.03912884784135311, 0.0010887157434699604, 0.1799858113461637, 0.2547391534205098, 0.23021143690603663, -0.49992252541054377, -0.49625679911623616, 0.4249177153065689, 0.22380317309161396, -0.3857637267427012, -0.39451684915634416, -1.0312536223878785, -0.4630443188512058, -0.48208108276731254, 0.15829639794367859, -0.06390922882211424, 0.10507545845399097, 0.4899679734226115, 0.5213051919996537, 0.2521880453690917, -0.02577477312667765, -0.001450162392982859, 0.060527978631182894, 0.033310246396288656, 0.06299381044907279, 0.20139186896834063, -0.34670030329044943, 0.009973233448980892, 0.2615571204186823, -0.2646641693658265, -0.9747343356896138, -1.217000301799373, -1.2534091329284054, -1.439696445208789, -0.9533934299062552, -0.4899755122605117, -0.4089174782012674, -0.052778090437278616, 0.39123465034315347, -1.2028692001374373, -0.04316395193123526, 0.2409762197935061, -0.0637236224858878, -0.18572182523496067, 0.2304248118964071, 0.4215110428204521, 0.391133530368185, 0.16734635634795111, 0.00894131127388365, 0.02645633625723058, -0.051985699067096484, -0.006677850519370861, 0.06229934896745873, 0.36123786304692057, -0.05315772757231126, 0.07497387564405823, 0.19922998766842415, 0.07148162711899021, 0.025469522655648332, -0.4118717432846554, 0.26702897860127134, -0.4633497529581762, 0.04240631763371518, 0.8148484266481477, 0.44794905313548966, 0.056719711377823175, 0.03463293604129977, -0.9202961512153868, -0.9807513745102993, -0.4314995263764577, -0.015127445582499616, 0.09182965949319333, 0.42916276211052934, 0.24450995470075348, 0.2741141656523907, 0.13365327412556743, -0.033129428428675535, 0.002818198816023275, -0.0036526375244746107, -0.05797774654207736, 0.01009388922051151, 0.2729572080068523, 0.3769377357629888, 0.3406832743602271, 0.6209863556644886, 1.3400574322567973, 0.6623559146550739, -0.3471946719997298, 1.212734838886691, 1.1839438240243931, -0.16950065591947247, 0.3544421053598773, -1.1574933199804665, -1.2428066805008147, -0.5580114439103276, -0.11643543400818591, -0.36214198013605625, -0.05964382644734167, -0.6318086140884961, -0.4062822199415331, 0.0021260505906082272, -0.055991297854231736, 0.20023327715928757, 0.09916010216601229, -0.048074213203357495, 0.031037268512739115, -0.019154614596779217, 0.03695747152811748, -0.029451041818202694, 0.20124290209339327, 0.3154569150466932, 0.5313868529542781, 0.8158032129943685, 1.60700737195445, 0.986019054318865, -0.3352578617959383, 0.5948744021023961, -0.09657674465266575, 0.04870038856208327, -0.1392564413441982, -0.9334988363962412, 0.10828155948713217, 0.3829991681624264, 0.10660471043278992, -0.049411662925720454, -1.104121303349125, -1.0302547502821768, -0.5557327723589217, -0.0422451834766933, 0.02000999617460069, 0.09115689472858951, 0.009954971912356517, 0.003770757082884656, -0.021345472004483893, -0.007671314233426792, 0.05019411369772756, 0.025506112362931016, -0.027981617369744773, 0.06473932786613396, 0.2941173413291975, 0.5410456612651188, 0.7771616261168901, 1.0327447557611042, 1.099855753497014, 1.4018913932660533, 1.1273430152386774, 1.0782244541394, 0.8380120405869589, 0.18274345999487515, -0.26184777444321994, -0.06677368321017361, -0.23236895773039357, -0.050550940402907925, -0.23230785773740964, -0.10233454795799038, -0.0792398820132792, -0.09383229636609994, -0.007871846504635594, 0.023354928411761008, 0.011095833345908109, 0.020549303227235746, 0.08797591747987242, 0.031207371701425405, -0.05802480160603825, 0.012336416081141678, 0.03449886035389181, 0.05248553020798759, 0.20602294106261365, 0.3459691623635845, 0.43341685804016766, 0.42309135010873716, 0.6736710117911764, 0.6878561009605321, 0.7113669050671938, 1.1528888523287888, 1.1787987880629647, 1.4892823310623058, 0.8191401779839022, 0.5469051805482453, 0.5171783283038109, 0.4898321765624039, 0.17930293104536513, 0.09218519988204488, -0.004861943046498816, -0.006161401938789205, -0.018761413693876943, 0.013870948629652886, 0.01617655863473964, -0.03261865990680292, -0.03246843777715923, 0.02048320502134237, 0.012956132714685887, 0.06664553710434404, -0.024047924736288664, 0.01111195090786773, -0.0011365711414287824, -0.00360554588445305, 0.018642389182180783, 0.03067804565414292, 0.044790759192465404, 0.058553123743042376, 0.003575922475744476, 0.03275529779840165, 0.04267218472993867, 0.16797372372088146, 0.038770823368267635, 0.06304015685199307, 0.15014738864842517, 0.14198387832550943, 0.04213814626268836, -0.0033340501602572886, 0.007429067068005634, -0.02905611270483953, -0.0030056171025659804, 0.022521618966328677, 0.01546604043763287, -0.0396302717881696, 0.00694138018865654], [-0.06418616899565104, 0.01488958009438488, -0.03675329897824838, -0.03336469186804928, 0.036205897158662514, -0.04944422293783706, 0.014862938418346397, 0.05036498326530332, 0.04653679209695366, 0.0401526614571497, 0.038408185509205904, -0.0486975470579848, -0.02853961712942801, 0.11031545271603299, 0.013122769062577588, 0.020362873659285644, 0.005402097659902029, 0.00694516289615328, -0.02544260724275657, -0.017051874506242123, 0.013279468604524036, -0.0415079632767929, 0.028253628024980527, -0.036400452804287865, 0.02577623344291064, -0.02191415696163213, 0.04558127122731444, -0.0015614395510810304, 0.05909788471551972, -0.021088230256787136, -0.005606852585370613, 0.019074580251567132, 0.006082191574590963, -0.002392160844426027, 0.03605387792302603, -0.011301584585129117, -0.010400154332732836, 0.02288160163212387, 0.007802258757455765, -0.09803224470820655, -0.08413785328065411, -0.0075328580193715945, -0.17556053943906605, -0.33084883147087746, -0.05433445050162218, -0.028449368763539283, -0.05159189635161171, -0.0496496019728585, -0.06440668135916855, 0.03212960509982032, 0.0004792286458473956, -0.006691640390347748, -0.033799302853871095, 0.03528003895173292, -0.025345030034613174, 0.0591108961339677, 0.015310577143787798, -0.029254826849324067, -0.022889692668230606, 0.023793388071850004, -0.010610270861411105, -0.01758452234983405, -0.023901727826595952, -0.025944522521609538, 0.08227139927098226, 0.0895201740421256, 0.027571718033468088, 0.04591181055544106, 0.03992199191183642, 0.13837255809312873, 0.032555607281498374, 0.21233920933881414, 0.4293734207003734, 0.17311047051555678, -0.17184435230786774, -0.30321767932485366, -0.372408379872416, -0.3072323363040261, -0.10072778565682207, 0.006807412974140029, 0.01815131810290569, -0.020033747696830067, 0.02981976284643629, -0.01237258277842859, -0.016803443080992735, -0.007779486678419758, -0.03815155198718624, -0.056619792529839064, -0.04015189315220226, 0.03568978630762501, -0.046730455012186894, 0.036275400359648435, 0.24471946436118025, 0.7069473822562682, 0.731683044306002, 0.6811874817300655, 0.46509564402075415, 0.7870985532826892, 0.44630929988620877, -0.6021547581074154, 0.04089160114825813, -0.4450278248131141, -1.2419323221386322, -0.5514570029267756, -1.005574603529468, -0.8142439265169893, -0.6206700402369285, -0.33332636604974447, -0.07012997828808154, -0.05948186511229255, 0.00479897954262, -0.030363364845820893, -0.0005179343726746118, 1.9410696052662098e-05, -0.04463673845972757, -0.004370085613308856, -0.1358708069065176, -0.1464276089079283, -0.20127449015301163, 0.08493390859536303, 0.6400394086818686, 1.7371864680174713, 1.8941495601478233, 1.554848587271682, 0.7845830391654312, 1.427035590414115, -0.04309427579336261, -0.6805328651673912, 0.02896474328257234, -0.3030560236422414, -0.6110691489468794, 0.03368292456516288, 0.3171158968925295, -0.28608709225753937, -0.7365037619129405, -0.7787454064947507, -0.5131910765095823, 0.0005667578058273604, -0.030232368553799085, 0.06586404611345037, -0.0026150636767811554, 0.012724830352860069, 0.0038991624604887776, -0.09478947840023362, -0.20937017129806726, -0.4780638760375828, -0.28405975181814946, -0.25330101527788573, 0.5785828831597624, 0.6371131240524461, 0.6362372289372742, 0.8467881649152948, 1.0637929956615746, 1.2163294311558044, 1.0038103141781272, 0.7082548764665194, 0.9344569759461406, 1.2364764514114983, 0.7996989560954405, -0.5254691713252863, 0.11507248077634294, 0.1411442456145336, -0.8164975978049331, -0.816752043401276, -0.6083052379879446, -0.08199767030608922, 0.05340714933957306, -0.05065936135033041, 0.023470088743395928, -0.00296061861604306, -0.20238843209377927, -0.4874344384672377, 0.03051652483826305, -0.188588403793374, -0.5186591459199905, 0.3602096676682936, -0.19600634447119947, -0.36166635757773424, -0.2555853115038835, -0.8367178660777974, -0.6049080837376626, -0.0642845253361887, -0.6611260446387156, 0.12603821273295832, 0.16894835087000215, -0.4631990233412273, 0.49081490703642, -0.4145837514368629, -0.9837547554229175, -0.10369038434718837, -1.0155863826530516, -1.062487347416176, -0.7865699121806817, -0.4479987753728293, -0.08243676315778305, -0.05923999599562745, -0.04851174658084256, -0.005499725658308402, 0.15583061159892994, -0.2585864986474669, -0.17883797461482875, -0.5705570538152299, 0.1057240581574969, 0.13785173360825917, -0.18757436670119187, -0.3930517797934549, -0.576722633235116, 0.08202245322680507, -0.1046526539888707, 0.6973280975959306, 0.3543293960594282, -0.5795926368748856, -0.8729647581155321, -1.3555893888375072, -0.5715659112121597, -0.4166440860487278, -1.6149906472940776, -0.355563434654991, -0.6813678933479403, -1.83941267157557, -1.1634589389154713, -0.6315197235027523, -0.07652022461560645, 0.021056451266813665, -0.04873898970006313, 0.07180811509304919, 0.13604301836819835, -0.25973258951614836, -0.6318210724456272, -0.0597003554889039, 0.3778564920036466, -0.6279783423378034, -0.6166059431466565, -0.6991294496658444, 0.09450707083443095, -0.0676338145694039, 0.8455112105587302, 0.3035278115931993, 0.5090972739931673, -0.7460633396814015, -1.242968783850993, -0.6362249697489667, -0.5154470984451469, -0.7348158140630692, -0.5563644851180763, 0.18363255017540744, -0.5657477978279755, -1.7297372164542235, -1.5394284904522115, -0.658008965717641, -0.11992105841908017, -0.011917820883848938, 0.03918708682674285, -0.01848063039261044, -0.20484817198578353, -0.42841364212401817, -0.5433861608415862, 0.352705415388332, 0.22560382454495437, -0.00624595749247328, -0.33938465310278926, -0.06525882292605083, 0.5531431874887396, 0.8623066212001503, 0.3296983456124334, -1.1077264362037107, -1.1707077755252502, -1.295560900709854, -0.7382953219986393, -0.3299781715881953, -0.13188098155877678, -0.6614798628615243, 0.03012490072109655, -0.027113502850567024, -1.2972355113249097, -1.6603105953489652, -1.397311937773312, -0.649309850680664, -0.17709020657206306, 0.04160421362513262, -0.006564116254956116, -0.01913236001168048, -0.25023507991587557, -0.5751786401477136, -0.5621846678412721, 0.28637861783796054, 0.5471944788047132, -0.16733286338550474, -0.5616604301786644, -0.5549922680216516, -0.015416501440394595, 0.6207316618400118, -0.24530463239084646, -1.5781282284010212, -1.2539410529630841, -0.8769268624862909, -1.1301234321850446, -0.8705389066646012, -0.28149184620963363, -0.8172141507011761, -0.6757207042370152, -0.7917728419679427, -1.614826714393732, -1.6902138374567433, -1.512802785436977, -0.7988145118515759, -0.0876949693058262, -0.00781493816972269, -0.0011391350372048756, -0.004337491969557005, -0.06919713446259318, -0.4055702709335344, -0.33541369582382263, 0.39864234794854936, 0.19450839630367023, -0.9878712595187603, -0.6361935852375984, -0.4546568320690323, -0.5204441996360082, -0.7115780986126486, -2.5965038092870474, -5.073298155712392, -3.8162605717036664, -2.780770102619645, -2.107458223752097, -2.207930375919944, -0.23472295564674506, 0.40187244095234204, -0.5038189337719234, -0.1312246609100976, -0.6584334278129337, -1.1856180813869939, -0.7572580794825245, -0.19648054165910825, -0.09968260882647945, 0.029215558809772956, 0.041081016202467395, -0.029810384663409333, -0.05134048760339428, -0.2593303873617809, -0.18000856589039663, 0.23043044274138344, -0.4358823131945921, -1.107636566268682, -0.36327718863084696, -0.5410142881405152, -1.8567534221789757, -2.8870433912223383, -3.706700554313222, -4.103839568030536, -3.8375851773580494, -2.815670221613522, -2.588296188238877, -2.2110459249808496, -1.205182046163285, -0.7337193778600449, -1.255295576603956, -0.502619159276652, -0.2857668179090424, -0.7906099226213014, 0.019438520259657897, 0.18404614774183153, -0.0677581174002754, -0.01169761746345575, -0.005446017996179877, -0.02386639079622173, 0.028363654376491066, -0.07267133238617458, 0.0196908551710754, 0.43413992750234787, -0.047867919480373604, -1.203121197845722, -0.9866323506351986, -0.5725128549550992, -1.6769859922883559, -1.5645856923430563, -0.6480143767016712, 0.5565255067979347, -0.8894580204082594, -1.8960539898975577, -2.3668897885933387, -1.212410718959751, -0.8486793276164397, -0.959664638355249, -1.4539618785822548, -0.35646153294250515, -0.26286321154850556, -0.03061644618075875, 0.8674532474497498, 0.5658349389578097, 0.29416294699973894, 0.1693200157583772, 0.015328783430668437, -0.08298252350127255, -0.08646414026329956, 0.015564131251184462, 0.4849812399005299, 0.7006458895053396, 1.1936469625024604, 0.7540109050526264, 0.02911045807768353, -0.1708182062901609, -1.2139240057182492, -1.1038274819440776, -0.4264683376834339, 0.5775526843058482, -1.1611092125133973, -0.9085016955364451, -0.14006356308653045, -0.7434136816747, -0.5059894949624254, -0.8024906729220002, -0.5294047866375545, -0.7546686574273623, -0.05677049720945223, 0.8793587795067119, 1.3449875995644762, 0.9002973485143272, 0.37104843559366607, 0.07479281306189796, -0.03339820279540771, -0.11801509504151514, -0.06925532858044445, 0.07454196148191225, 0.5053686982676522, 1.6705925406222837, 1.9483134393909245, 2.3079794638837257, 2.6051547169514073, 1.2272831329335883, -0.30673252180544214, -0.7993830156708488, 0.2678587153187788, 0.09467741954205249, -0.5341002744519567, 0.43966002486335937, 0.4691925856566462, 0.14822942329672512, -0.33489311609622757, 0.6132492592300305, 0.4083301391105242, -0.9970671157556578, -1.374631902526249, 0.013674385855479407, 1.0761963939352608, 0.9072578658231129, 0.4372313576782842, 0.0531704224571333, -0.016427426790743566, -0.03788988835091613, -0.34195979472374105, -0.16817198350531648, -0.3096736743081314, 1.091438814438952, 2.1669783730095427, 1.7368874306411928, 1.5765722760587462, 2.163943665089167, 1.4777954668275741, 0.6630887017215926, 1.6925505263150578, 1.096327096732284, -0.1317653690046583, 0.7653257978257443, 2.0925607531096655, 1.5769168197613472, -0.11834799416142044, -0.3319663257097174, -0.4792777871676088, -0.01908657951302917, 0.8535326855248199, 1.8877966398317219, 2.203525034466314, 1.3999606099027386, 0.6874395956534972, 0.08275654426064506, -0.022547358323260065, -0.009108638510813998, -0.3323861136328836, -0.3194233048214225, -0.7172999043380095, 0.5150950448103182, 0.77185108064596, 0.9460836996343324, 1.2207178878325575, 1.8217022563096357, 1.660656969541851, 1.9013062271126189, 2.8496648706851797, 0.6698725013012988, 0.3594347891123244, 1.5692176666954991, 1.8799934048749145, 0.576657013889895, 0.050640789519732256, 0.2459668195070683, 0.5749834862806094, 0.10055860332716918, 1.2616566711775627, 2.1236909365584613, 3.2461986948751917, 1.837292663859023, 0.44358575853570337, 0.04702300320252059, -0.029572335350858386, 0.06506584238294759, -0.3080364753686788, -0.4219418020128113, -0.03275749273259864, 0.4168038963008096, 0.5491531354997595, 1.8927556010003612, 1.196832492660985, 1.0754609606320236, 0.5369551155260199, 1.1819166307844298, 2.196333184900391, 0.4263811765607523, 0.8557506412656527, 0.8590998881593327, 1.0571003996574715, -0.4541219910994654, -0.14436449701894172, 1.044862634433239, 1.4857219376638502, 0.98004405356705, 0.8410364237404387, 2.2226036246148326, 3.9353250405544937, 1.6078701294702087, 0.1520726786149802, 0.0028565376182346533, 0.022337249815530348, 0.023167051771738643, -0.15112114269987056, -0.13825839519455604, 0.209801746402922, -0.7630538100552804, 0.7572823519655697, 1.5738670302643745, 1.1230201157780832, 0.36864966155884255, 0.25324839748351685, 1.020992182525264, 0.6978484097059765, 1.2315309260496246, 1.703257956157553, 1.1322864029960988, 1.8855146561434597, 1.563978322399941, 0.406183767801364, 0.6839970802752222, 1.574925890599053, 0.779195886805415, 0.9949579772423467, 1.947905865437652, 2.2963642514687748, 0.7046279040154024, 0.1819028847011092, 0.02115360737549954, 0.01387116880538558, -0.030698413790409537, 0.04745725212958932, 0.3997159906900564, 0.9826937696195893, 0.2617673817255145, 0.5295469702265755, 0.6303785731321682, 0.6503035331133415, 0.7834165101031915, 0.3970308412013039, 0.844194454009163, -0.2574145878307905, 0.5454612457073481, 0.786961961583411, 0.4867897576763196, 1.0459710370223443, -0.40655431955895305, 0.7203839188844561, 2.043992178247987, 1.4059206810840381, 0.8663201383089836, 1.2737526231426288, 2.321089247384544, 1.207888428898211, 0.32920288221908683, 0.06953878648683823, -0.008543856337423847, 0.018679590301573807, 0.04728843930616691, 0.020880202173640817, 0.2720734882114137, 0.7058389709594977, 0.8316035942127594, 0.4531237904511587, 0.10993454314802938, -0.40854700088793394, 0.23978992300302163, 0.1818023372006439, 0.10258381884411617, -0.33911852862318403, -0.8676627242645156, -0.7510611728595739, -0.9612882262178043, 0.03576160818022672, 0.2975137367084722, 1.1068424449879632, 2.0782661479461715, 0.9371630050996307, 1.2918801116105845, 1.9206028791030538, 1.8516000932767471, 1.085691921917889, 0.35497121847068897, -0.0030622100463247016, 0.030799438563546774, -0.04287973910905564, -0.0468162849891452, 0.006514414434039487, 0.2053334535482724, 0.5509267309782095, 0.9580884486997103, 0.3343236632611736, -0.09159975418688328, 0.23272674715125188, 0.9311601409863797, -0.08386831406044547, -0.059005724522089666, -0.9600317134095823, -2.888509088435351, -2.6045418860073166, -2.1462217157992156, -1.721723402663575, -1.3681337111740417, 0.0875204347207763, 0.3157772942886406, 0.4458141066545132, 1.1564272340354547, 1.743452285627518, 1.1306886446409183, 0.677340347605767, 0.34458253034501474, 0.06820336669943673, -0.012905862132678218, -0.017681400553376365, 0.060335705054982744, 0.0001234761416657285, 0.07183633787786381, 0.01795308743015165, 0.05015145502661695, -0.940967846085245, -0.9663882776956612, -0.38134958312532075, -0.6892340507673445, -1.245369691667784, 0.07231529526418877, -0.4771248243937553, -1.63340148986802, -1.5828349895476481, -2.2556531343825563, -2.4434062034200545, -2.8434852896506766, -1.1443041616564378, 0.32942817022258586, 0.4129581231985603, 1.1828576693910404, 1.8701185440195496, 0.9440415884350434, 0.4746595433449668, 0.30582560882162674, 0.06519271374960793, -0.013972343343723562, 0.03014814091430051, 0.02858497093096769, -0.03911800153098134, -0.3214745695673092, -0.5947957591632594, -1.150184912420876, -2.1249778814413607, -1.6658367944113348, -1.4759690223575994, -2.2699928718638196, -2.6206961694327573, -1.8409075612092087, -1.9317911832608832, -2.3419911631150905, -2.300407912987668, -2.156513873095665, -1.9723663346625546, -2.3678998920651324, -1.3648139731259146, -1.11895737160346, -0.1791600569262143, 0.7380144050874017, 0.8848031485788841, 0.6032541397903255, 0.32528851938836156, 0.17703069313810674, 0.01032804508860126, -0.007700997130570296, -0.005426561492935708, 0.07597636221368222, 0.003552944532471532, 0.07065052503096403, -0.09554723141603905, -0.3029146542110221, -0.5594014556617047, -0.9228926907167706, -1.407189978173935, -1.8315431858445852, -1.5694414422034906, -1.5366392440867336, -1.3051679828860385, -0.9959868956902989, -1.0282150819389282, -0.8670719636630145, -0.7664546314295884, -0.8617381711796678, -0.685849134591821, -0.8466029744974543, -0.24566962041909074, -0.018871184470024643, -0.09579641412951423, 0.13851772552994682, 0.03373432434577003, -0.0054415662103937034, 0.026025339689602214, -0.03682643756640303, 0.05455003669899772, 0.026163728339215965, -0.03670590639194722, 0.07509186294295495, 0.03084015895050455, 0.015083134775184168, 0.009214520788270085, -0.12473017549500652, -0.1592953681176323, -0.10999951836220814, -0.060893201172503277, -0.17895598229193022, 0.061584707231667396, 0.07526184603648191, 0.007228724536001814, -0.1259589119043673, -0.022393435429040764, -0.14575861254364147, -0.3444845441764014, -0.2067833139104304, -0.0843914494198659, -0.003940665471123121, -0.03144251856129456, -0.022025682574585467, -0.02538933434490235, -0.035758515436522434, 0.0740186960142316, 0.013200836148512777, -0.007497877167962941, 0.007782914691357119, 0.030611708798844162, 0.031662532759096786, 0.023664094641767754, 0.04343587393916225, 0.06815590380575168, 0.03939981549038164, 0.0004836982434694188, 0.01820815140360548, -0.046483173520323696, -0.011231085262736253, 0.01658398953664965, -0.04745366668001898, -0.07580366458999922, 0.014600491280956049, 0.04569644167524983, -0.030468302706274854, -0.01197870986733953, 0.03602893843655517, 0.05308822593833758, 0.05553207987070882, -0.006106644727213685, 0.04979189369690708, -0.03912710225735731, -0.020320483545161576, -0.0609813765015831, -0.010754492890677482], [0.019843376914251885, 0.0007918259844534899, 0.040547649739712754, -0.016474577115285726, -0.0627287591406959, -0.025304852288531944, -0.06339717375286888, 0.007503534762783594, -0.008908881320620756, -0.013752414110319983, 0.003048515806641562, 0.026071852662893674, 